SVM-light Version V6.02
0 # kernel type
3 # kernel parameter -d 
1 # kernel parameter -g 
1 # kernel parameter -s 
1 # kernel parameter -r 
empty# kernel parameter -u 
27540 # highest feature index 
625 # number of training documents 
441 # number of support vectors plus 1 
0.46606844 # threshold b, each following line is a SV (starting with alpha*y)
-0.0013001129432948588596219430257861 2:1 117:2 121:3 123:1 163:1 195:3 202:3 219:1 235:1 272:1 276:1 280:1 332:3 345:1 351:5 362:1 388:2 471:1 500:1 580:2 598:1 599:1 696:1 724:2 787:2 1076:1 1148:1 1161:1 1236:1 1379:1 1580:1 1602:1 1768:1 1914:1 1922:1 1932:1 1934:1 1939:1 2342:1 2710:1 2837:2 3143:1 3192:1 3222:1 4284:1 4468:1 4664:1 7034:1 7103:1 7316:1 7536:1 9094:1 9991:1 10254:2 11490:1 17290:1 17291:1 17292:1 #
-0.0013001129432948588596219430257861 2:3 18:1 28:1 60:1 68:1 77:1 86:1 102:2 109:1 114:1 122:1 136:1 146:1 163:1 175:2 176:1 186:1 197:1 224:1 225:1 248:2 250:1 266:2 287:3 298:1 299:2 335:1 359:2 360:1 388:1 397:1 446:2 488:1 489:1 522:2 523:1 569:1 597:1 610:2 618:1 639:1 670:1 682:1 725:1 810:1 884:1 938:2 964:1 1049:1 1111:1 1160:1 1170:1 1177:1 1207:1 1251:1 1286:1 1355:1 1441:1 1444:2 1445:2 1522:1 1535:1 1554:1 1580:2 1673:3 1728:2 1762:1 1858:1 1893:1 1931:1 1934:1 1954:1 2106:1 2182:1 2199:2 2200:1 2286:1 2353:1 2391:1 2400:1 2404:1 2440:1 2494:1 2502:1 2503:1 2504:1 2546:1 2591:1 2666:1 2749:1 2774:3 2786:1 2787:2 2803:1 2837:3 2872:1 2956:1 2972:1 2984:1 3009:2 3021:1 3105:1 3106:1 3114:1 3172:1 3284:1 3299:1 3360:1 3386:2 3404:2 3456:1 3514:1 3542:1 3553:1 3570:2 3596:1 3623:2 3653:1 3816:1 4498:1 4566:1 4716:1 4829:2 4970:1 5044:1 5097:1 5314:2 5366:1 5704:1 5785:2 5799:1 6105:1 6221:3 6230:4 6406:2 6970:1 7738:1 8496:1 8509:1 9050:1 9323:1 9403:1 10096:1 10335:1 10403:1 10905:1 11424:1 11779:1 12623:1 14799:1 15077:1 15751:1 17293:1 17294:1 17295:1 17296:1 17297:1 17298:1 17299:1 17300:1 17301:1 17302:1 #
-0.0013001129432948588596219430257861 2:2 7:1 27:1 39:2 49:1 52:1 57:1 66:1 68:4 71:1 74:2 77:10 89:1 97:1 106:1 111:2 117:10 121:3 123:1 124:1 126:2 128:1 150:1 158:1 163:1 171:1 175:4 195:11 203:1 204:6 218:1 237:1 243:3 248:1 262:1 264:1 272:3 276:1 287:7 292:1 305:1 332:5 345:2 351:5 357:1 359:1 361:1 371:1 384:5 396:2 407:6 414:1 446:2 448:4 452:4 471:2 475:4 489:5 491:2 493:1 500:2 540:1 550:1 551:1 561:2 564:1 569:1 576:2 588:1 595:1 612:1 636:1 646:1 685:1 693:1 706:1 724:1 739:1 771:1 787:2 792:1 817:1 823:1 824:1 827:1 836:1 842:1 860:1 873:1 885:3 896:1 921:4 933:3 940:1 945:1 946:1 953:1 975:2 992:2 994:1 1006:1 1012:1 1032:1 1042:1 1076:1 1085:2 1105:2 1114:1 1161:1 1171:1 1268:1 1286:1 1287:1 1304:2 1323:1 1326:1 1337:1 1373:1 1388:3 1391:2 1394:1 1422:1 1446:1 1448:1 1453:3 1529:1 1533:1 1534:1 1543:3 1577:2 1596:2 1625:1 1645:2 1650:1 1736:1 1823:1 1824:1 1872:1 1875:1 1876:3 1902:1 1904:1 1909:1 1934:1 1979:1 2010:2 2076:1 2119:1 2149:1 2258:1 2272:1 2280:5 2296:1 2302:1 2305:1 2307:3 2310:1 2316:1 2317:2 2320:1 2324:1 2370:2 2398:2 2445:1 2486:2 2571:1 2603:1 2701:1 2722:1 2749:1 2784:1 2803:1 2810:1 2837:6 2879:1 2904:1 2968:1 3021:1 3048:1 3140:1 3152:1 3172:1 3181:1 3251:1 3320:1 3371:1 3404:1 3457:1 3515:1 3536:3 3548:1 3622:1 3627:1 3638:1 3664:1 3705:1 3743:1 3841:1 3892:2 4178:1 4246:1 4286:1 4294:1 4397:1 4508:1 4534:1 4680:1 4720:1 4773:2 4878:1 4989:1 5311:1 5438:1 5485:1 5654:1 5683:1 5715:1 5719:1 5730:1 5756:1 5795:1 5805:1 5807:1 5931:1 5992:1 6018:1 6123:1 6129:1 6215:2 6236:1 6913:1 7075:1 7204:1 7634:1 7740:1 7865:1 8270:1 8277:1 8589:1 8594:1 8795:1 8798:1 8840:1 9621:1 9930:1 10073:1 10589:1 10651:1 11674:1 12578:1 13040:2 13991:2 14020:1 14099:1 14586:1 14673:1 14730:1 14733:1 14817:1 14850:1 15181:1 16469:1 16882:1 16896:1 17303:1 17304:2 17305:1 17306:1 17307:1 17308:1 17309:1 17310:1 17311:1 17312:1 17313:1 17314:1 17315:1 17316:1 17317:1 17318:1 17319:1 17320:1 17321:1 17322:1 17323:1 17324:1 17325:1 17326:1 17327:1 #
-0.0013001129432948588596219430257861 29:1 61:1 66:1 68:1 73:1 77:3 79:2 121:1 126:1 128:2 175:2 187:1 195:2 197:1 203:3 204:2 218:1 247:1 249:1 272:2 276:2 332:1 335:1 345:1 367:1 389:1 471:1 475:1 482:1 500:1 508:1 551:1 576:1 612:2 639:1 724:1 849:1 885:1 919:1 921:5 933:8 940:1 999:1 1032:1 1049:1 1051:1 1062:1 1076:2 1084:1 1114:1 1140:1 1267:1 1304:1 1307:1 1318:1 1366:1 1372:1 1438:1 1453:1 1479:1 1482:1 1535:1 1543:2 1553:1 1583:1 1602:1 1823:1 1827:1 1837:1 1854:3 1872:1 1909:1 1921:1 1934:1 2018:2 2047:1 2107:1 2122:1 2203:1 2210:1 2273:1 2279:2 2285:3 2294:1 2305:3 2311:1 2319:1 2394:1 2398:3 2546:1 2588:1 2592:1 2647:1 2810:1 2837:2 2953:1 2973:1 2976:1 3003:2 3033:1 3106:1 3281:1 3309:1 3322:1 3357:1 3499:1 3512:1 3520:1 3548:1 3717:1 3757:1 4409:1 4869:1 5005:1 5103:1 5362:1 5675:1 5850:1 6018:1 6205:1 6520:1 6935:1 7168:1 7276:1 7452:2 7717:1 8052:2 8176:1 8927:1 9520:1 10632:1 12019:1 12156:1 13047:1 13052:1 13120:1 13198:1 13765:1 14199:1 14584:1 14735:1 14822:1 15293:1 15407:1 15439:1 15450:1 16224:1 17315:1 17328:1 17329:1 17330:1 17331:1 17332:1 17333:1 17334:1 17335:1 17336:1 17337:1 17338:1 17339:1 17340:1 17341:1 #
-0.0013001129432948588596219430257861 7:2 18:1 138:1 175:1 186:2 197:1 219:2 231:1 261:1 276:1 279:1 345:3 351:3 360:1 400:2 418:1 469:1 471:3 500:2 531:2 681:1 838:1 894:1 916:1 936:1 959:1 973:1 974:1 999:1 1003:1 1030:1 1092:1 1107:1 1111:1 1132:1 1299:1 1385:1 1406:1 1417:1 1433:1 1437:1 1444:1 1469:1 1591:1 1664:1 1744:3 1893:1 1934:1 1956:1 1989:3 2020:1 2058:2 2076:1 2193:4 2464:1 2471:1 2488:1 2556:1 2568:2 2603:1 2675:1 2767:1 2774:1 2818:1 2934:1 2993:1 3033:3 3201:1 3262:1 3366:1 3446:2 3457:1 3704:1 3711:1 3718:1 4055:1 4136:1 4171:1 4271:1 4651:1 4705:1 4771:1 4804:1 4876:1 5228:1 5335:1 5551:1 5767:1 6365:1 6610:1 6707:1 8608:1 9121:1 9763:1 11006:1 11097:1 11384:1 11535:1 11953:1 12782:1 12786:1 14648:2 16133:1 17336:1 17342:1 17343:1 17344:1 17345:1 17346:1 17347:1 17348:1 17349:1 17350:1 17351:1 17352:1 17353:1 17354:1 #
0.00078726979457501683988540630565467 2:2 5:2 7:2 13:2 49:1 50:1 62:2 109:2 114:1 115:1 121:1 128:1 136:2 148:1 163:1 174:2 175:6 186:5 187:2 188:1 202:4 203:1 214:1 217:1 242:4 243:3 247:1 250:2 276:1 278:3 280:1 284:3 287:2 296:2 308:2 330:1 335:1 342:3 345:1 362:1 368:1 371:1 408:3 446:3 447:1 452:2 455:1 467:1 469:1 471:1 475:2 482:3 500:1 520:1 543:1 545:2 552:1 562:1 576:2 610:1 612:1 630:2 650:1 681:1 744:1 765:1 800:1 888:1 919:1 958:1 968:1 970:1 973:7 985:4 986:1 1003:1 1062:1 1084:1 1085:2 1091:1 1093:1 1095:1 1111:1 1272:1 1282:1 1297:1 1311:3 1317:1 1322:1 1342:2 1348:1 1372:1 1409:1 1424:1 1426:2 1437:1 1441:1 1444:2 1453:2 1469:1 1509:1 1546:1 1547:1 1575:1 1576:1 1580:2 1586:1 1591:6 1596:1 1602:5 1626:2 1627:1 1636:1 1638:1 1647:2 1660:1 1794:1 1833:1 1834:2 1842:2 1914:1 1934:1 1938:1 1958:1 2019:1 2022:1 2045:1 2081:1 2096:1 2107:2 2122:1 2128:1 2146:1 2154:1 2155:1 2161:2 2195:2 2251:1 2258:1 2273:1 2350:1 2353:1 2368:1 2370:1 2384:1 2422:1 2444:1 2506:1 2526:1 2559:2 2633:1 2663:1 2672:1 2714:1 2724:4 2744:1 2749:1 2754:1 2770:1 2784:1 2787:1 2794:1 2803:1 2818:1 2824:1 2826:1 2830:1 2837:2 2916:1 2928:3 2931:1 2939:1 2972:1 2987:1 3002:1 3003:1 3058:2 3086:1 3154:1 3172:1 3189:1 3207:1 3217:1 3309:2 3314:1 3338:1 3367:1 3368:1 3401:1 3490:2 3512:2 3517:1 3556:1 3582:1 3610:1 3622:1 3627:2 3630:1 3655:1 3674:1 3698:1 3701:1 3730:1 3760:2 3806:1 3832:1 3922:1 3933:1 4029:2 4128:1 4178:1 4324:1 4423:1 4430:1 4431:1 4485:1 4608:1 4609:1 4626:1 4656:1 4720:1 4765:2 4773:1 4829:2 4874:1 4913:1 4960:1 4966:1 5049:1 5098:1 5158:1 5282:1 5371:1 5632:2 5716:1 5733:1 5827:1 5874:2 6044:1 6069:1 6137:1 6180:1 6184:1 6196:1 6203:2 6222:2 6254:1 6499:1 6779:2 6785:2 6794:1 6892:1 6905:1 6906:1 7044:1 7084:1 7201:1 7275:1 7278:1 7366:1 7417:1 7418:1 7419:1 7420:4 7421:1 7422:1 7423:1 7424:1 7425:1 7426:1 7427:1 7428:1 7429:1 7430:1 7431:1 7432:1 7433:1 7434:1 7435:1 7436:1 7437:1 7438:1 7439:2 7440:1 7441:1 7442:1 7443:1 7444:1 7445:1 7446:1 7447:1 7448:1 7449:1 7450:1 7451:1 7452:1 7453:1 7454:1 7455:1 7456:1 7457:1 7458:1 7459:1 7460:1 7461:1 7462:1 7463:1 7464:1 7465:1 7466:1 7467:1 7468:1 7469:1 7470:1 7471:1 7472:1 7473:2 7474:1 7475:1 7476:1 7477:1 7478:1 7479:1 7480:1 7481:1 7482:1 7483:1 7484:1 7485:1 7486:1 7487:1 7488:1 7489:1 7490:1 7491:1 7492:1 7493:2 7494:1 7495:1 7496:1 7497:1 7498:1 7499:1 7500:1 7501:1 #
0.0010812490491514813346907164515187 2:1 15:2 25:2 27:1 46:1 54:2 56:1 77:2 117:3 121:3 140:1 165:1 185:2 202:4 203:1 208:1 216:4 231:1 248:1 256:1 261:2 267:1 272:2 317:5 326:1 332:3 342:1 345:1 351:1 353:1 381:1 385:1 389:1 401:2 418:1 435:1 448:1 467:1 471:1 500:1 560:1 580:3 586:1 588:1 672:1 675:1 802:1 845:1 852:1 867:1 885:1 918:2 925:1 942:1 946:1 968:1 973:1 1068:1 1080:1 1087:1 1122:1 1131:1 1350:1 1532:2 1547:1 1638:1 1671:1 1677:1 1762:2 1769:1 1782:2 1795:1 1915:2 1934:1 1979:2 1983:2 2022:1 2045:1 2065:3 2075:1 2079:1 2100:1 2116:1 2122:1 2125:2 2187:1 2258:1 2272:1 2286:1 2339:1 2471:1 2481:1 2486:1 2542:1 2591:1 2705:1 2713:1 2830:1 2837:1 2925:2 2930:1 2970:1 2988:1 2999:1 3042:1 3175:1 3320:3 3339:1 3350:1 3460:1 3603:1 3618:1 3622:2 3670:7 3779:1 3780:1 3804:1 3901:1 3921:1 4180:1 4531:1 4663:3 4669:1 4705:1 4745:2 4766:1 4773:1 4786:1 4791:1 5095:1 5113:5 5140:1 5637:1 5737:1 5750:1 5785:1 6329:1 6469:1 6800:1 6878:1 6910:1 6999:1 7026:1 8041:2 8043:1 8062:1 8156:1 8513:1 8810:1 9250:1 9842:1 10868:1 12204:1 12208:2 12426:1 12434:1 12435:1 12436:1 12437:1 12438:1 12439:1 12440:1 12441:1 12442:1 12443:1 12444:1 12445:2 12446:1 12447:1 12448:2 #
0.0008297779024500167004835260442519 2:7 27:4 45:1 62:1 66:1 68:2 73:3 75:1 77:5 91:1 104:1 112:1 113:1 117:4 121:8 136:1 138:2 140:1 150:1 158:1 165:2 172:1 175:6 179:1 186:1 187:1 188:1 193:3 195:1 202:1 204:2 225:1 242:1 243:1 250:1 254:2 261:1 272:1 276:2 279:1 280:2 282:1 294:1 298:1 308:1 316:1 332:1 335:2 340:1 342:1 344:1 345:3 351:3 353:1 388:1 389:2 408:1 421:1 446:2 449:1 452:2 457:1 467:1 471:3 497:1 500:3 501:1 513:1 569:1 576:1 580:5 612:2 630:1 636:1 639:1 670:1 673:1 678:2 679:1 681:1 706:2 724:1 771:1 793:1 797:1 802:1 817:2 823:1 824:1 840:3 849:1 853:1 890:1 892:1 918:1 919:1 921:1 973:3 974:3 1046:1 1053:1 1061:1 1068:1 1085:3 1096:1 1097:1 1107:1 1124:1 1136:1 1145:1 1150:1 1239:2 1243:1 1299:3 1357:1 1366:1 1369:2 1408:2 1437:1 1443:1 1444:2 1448:1 1476:1 1481:1 1482:1 1492:1 1509:1 1525:2 1527:1 1532:1 1566:1 1590:1 1595:1 1596:1 1602:1 1647:1 1673:1 1674:1 1718:1 1739:1 1752:1 1758:1 1791:1 1813:1 1878:1 1888:1 1934:1 1963:1 1972:1 2020:1 2094:1 2102:1 2107:2 2116:1 2122:1 2159:1 2213:1 2274:1 2317:1 2342:1 2370:2 2398:3 2422:1 2486:1 2502:1 2503:1 2574:1 2632:1 2641:1 2676:1 2722:1 2724:3 2770:1 2778:1 2803:1 2818:2 2831:1 2837:10 2888:1 2939:1 2947:1 2972:1 2981:1 2999:1 3003:1 3033:1 3035:1 3040:2 3044:1 3068:1 3106:1 3107:3 3126:1 3129:1 3169:1 3172:1 3278:1 3284:1 3291:1 3299:2 3322:1 3327:1 3369:1 3401:1 3495:1 3499:1 3526:1 3571:1 3634:1 3651:1 3729:1 3732:1 3876:1 3934:1 3945:1 4021:1 4069:1 4128:1 4234:1 4334:1 4373:1 4413:1 4524:1 4534:1 4701:1 4764:1 4773:1 5039:1 5389:1 5562:1 5564:1 5585:1 5589:1 5622:1 5637:1 5654:1 5675:1 5704:1 5811:1 5912:1 6185:1 6220:1 6418:1 6645:1 6654:1 6670:1 6709:1 6746:1 6758:1 6820:4 7282:1 7432:1 7439:1 7559:1 7667:2 7694:1 8003:1 8119:1 8160:1 8509:1 8797:1 8805:1 9000:1 9052:1 9452:1 9549:1 9606:1 9614:1 9634:1 9671:1 9746:1 10041:1 10048:1 10119:1 10252:1 10616:1 10822:1 10871:1 10874:1 10876:1 10901:1 10919:1 10921:1 10922:1 10938:1 11077:1 11166:1 11671:1 11693:1 11720:1 11785:1 11787:1 11919:2 12022:1 12064:1 12114:1 12196:1 12208:1 12312:1 12383:1 12420:1 12718:1 13778:1 13813:1 13852:1 14023:1 14298:1 14353:1 14874:1 15085:1 15116:1 15117:1 15118:1 15119:1 15120:1 15121:1 15122:1 15123:1 15124:1 15125:1 15126:1 15127:1 15128:1 15129:1 15130:1 15131:1 15132:1 15133:1 15134:1 15135:1 15136:1 15137:1 15138:1 15139:1 15140:1 15141:1 15142:1 15143:1 15144:1 15145:1 15146:1 15147:1 15148:1 15149:1 15150:1 15151:1 15152:1 15153:1 15154:1 15155:1 15156:1 15157:1 15158:1 15159:1 15160:1 15161:1 15162:1 15163:1 15164:1 15165:1 15166:1 15167:3 15168:1 15169:1 15170:1 15171:1 15172:1 15173:1 15174:1 15175:1 15176:1 15177:1 15178:2 15179:1 15180:1 15181:1 15182:1 15183:1 15184:1 15185:1 15186:1 15187:1 15188:1 #
0.0013001129432948588596219430257861 2:3 5:2 19:1 46:1 54:2 68:2 70:1 73:1 77:3 84:2 113:1 117:2 121:2 126:2 133:1 146:6 181:1 186:1 187:1 189:1 202:3 204:1 216:1 217:1 219:1 223:1 227:1 245:1 247:1 276:1 287:2 308:1 317:1 326:3 342:1 345:2 361:1 415:1 425:1 455:1 471:2 475:1 492:1 500:2 540:1 561:1 587:2 599:1 661:1 693:2 933:2 955:1 957:1 973:1 1003:1 1017:1 1042:2 1046:1 1079:1 1137:1 1151:1 1290:1 1299:1 1304:1 1419:1 1477:1 1506:1 1532:1 1568:1 1576:1 1738:1 1777:1 1808:1 1845:1 1854:1 1921:1 1961:1 1979:1 2010:1 2020:1 2022:1 2045:1 2100:1 2212:1 2279:1 2286:1 2307:1 2324:1 2393:4 2438:1 2591:1 2598:1 2616:1 2619:1 2683:1 3061:1 3065:1 3089:1 3122:1 3378:1 3832:1 4243:1 4626:1 5061:1 5070:1 5182:1 5484:1 5557:1 5951:1 6171:2 6508:1 6736:1 6809:1 6988:1 7143:2 7144:2 7145:1 7146:1 7147:1 7148:1 7149:1 7150:1 7151:1 7152:1 7153:1 7154:1 7155:1 7156:1 7157:2 7158:1 7159:1 7160:1 7161:1 7162:1 7163:1 7164:1 7165:1 7166:1 7167:2 7168:1 7169:1 7170:1 7171:1 7172:1 #
0.0013001129432948588596219430257861 2:1 13:1 28:1 155:1 163:1 185:1 242:1 264:1 335:1 354:1 366:1 435:1 456:1 486:1 569:1 582:1 681:1 752:1 1062:1 1556:1 1639:1 1660:1 1901:1 1904:1 1934:1 1972:1 2070:1 2100:1 2114:1 2198:1 2204:1 2581:1 2608:1 2774:1 2837:1 3035:1 3308:1 3813:1 4829:1 4885:1 6574:1 7216:1 8864:1 10105:1 12105:1 14942:1 14943:1 14944:1 14945:2 14946:1 14947:1 14948:1 14949:1 14950:1 14951:1 14952:3 14953:1 #
-0.00066208511358083427331827630624161 1:1 3:2 13:4 27:2 62:7 77:13 91:1 92:3 114:1 130:1 132:1 136:1 138:1 141:1 157:1 175:9 186:1 194:5 197:1 200:1 202:14 204:2 217:1 219:2 228:1 230:1 231:2 243:1 247:3 250:2 261:2 264:2 266:3 272:6 276:1 280:1 282:1 287:2 291:2 292:3 308:1 326:1 335:7 340:1 342:4 345:1 351:2 355:2 359:3 360:1 361:2 368:2 376:1 378:1 381:1 383:1 396:1 401:2 402:1 410:1 442:1 446:3 456:3 471:1 475:7 478:1 479:1 482:3 496:1 500:3 509:1 514:1 517:1 519:1 534:1 542:1 551:1 562:1 563:2 575:2 579:1 580:1 594:5 603:1 604:2 610:3 612:1 629:1 630:4 639:1 690:1 754:1 777:1 778:1 788:1 802:1 810:1 829:1 848:1 849:2 882:1 890:2 933:12 942:1 948:1 968:1 973:12 985:1 997:1 999:10 1010:1 1042:1 1046:2 1051:7 1061:2 1065:1 1068:1 1084:1 1085:7 1092:6 1104:2 1116:5 1123:3 1124:1 1140:1 1150:1 1159:1 1169:3 1170:1 1171:1 1187:1 1206:1 1207:2 1232:1 1233:1 1242:1 1267:1 1269:2 1286:1 1304:4 1311:1 1319:1 1350:4 1356:2 1370:1 1372:1 1382:2 1387:15 1389:2 1395:1 1403:2 1417:1 1437:2 1448:1 1453:6 1462:1 1463:2 1468:1 1482:2 1484:1 1498:1 1524:1 1532:1 1535:1 1537:1 1547:1 1556:1 1575:1 1583:1 1586:1 1596:1 1617:1 1635:1 1639:2 1660:2 1663:1 1673:1 1677:1 1712:1 1717:1 1749:1 1788:4 1819:2 1823:1 1829:5 1834:1 1835:1 1839:3 1841:1 1849:2 1851:1 1854:2 1876:1 1878:3 1897:1 1905:1 1908:1 1938:1 1954:1 1965:1 1999:1 2047:3 2065:3 2072:4 2088:1 2107:1 2114:2 2122:2 2136:1 2156:1 2159:1 2173:1 2187:1 2243:1 2273:7 2279:2 2283:2 2311:4 2319:9 2328:13 2334:1 2350:2 2378:3 2394:1 2408:1 2414:2 2444:1 2454:3 2480:1 2517:8 2540:1 2544:1 2562:1 2582:1 2606:1 2610:1 2626:1 2672:1 2714:17 2722:1 2724:10 2747:1 2756:2 2771:1 2773:7 2774:2 2775:1 2785:1 2787:1 2803:5 2807:1 2810:2 2837:3 2855:1 2858:1 2865:1 2872:2 2888:3 2895:1 2908:8 2911:2 2923:4 2931:1 2953:1 2994:1 3021:1 3033:1 3035:2 3043:2 3044:1 3061:1 3096:1 3120:1 3126:1 3129:2 3169:1 3201:2 3253:1 3258:1 3269:1 3281:1 3341:1 3350:1 3355:1 3357:1 3369:2 3384:1 3386:1 3390:1 3397:1 3402:1 3408:1 3410:3 3415:1 3457:1 3506:2 3512:3 3517:1 3610:1 3627:2 3659:1 3663:1 3711:1 3725:1 3744:1 3752:1 3760:3 3795:1 3826:1 3832:1 3851:2 3927:1 3934:1 4004:1 4026:3 4035:1 4040:1 4050:1 4093:3 4095:2 4100:1 4105:1 4110:3 4112:1 4116:2 4150:1 4152:1 4183:1 4205:1 4207:3 4208:1 4219:1 4255:1 4275:1 4296:1 4322:1 4324:1 4395:1 4409:1 4462:1 4492:1 4546:1 4561:1 4580:1 4596:1 4603:1 4630:1 4679:1 4716:1 4803:1 4822:1 4870:1 4915:1 4917:2 4952:1 4953:1 4990:2 5053:1 5065:1 5067:1 5080:1 5153:1 5267:1 5271:1 5304:1 5403:1 5529:4 5545:2 5581:2 5629:1 5677:1 5719:1 5810:6 5820:1 5821:2 5848:4 5859:1 5861:1 5863:3 5883:2 5904:5 5919:2 5921:1 5969:1 6102:1 6103:1 6130:1 6196:1 6229:1 6285:1 6306:1 6360:1 6422:1 6441:3 6467:2 6469:1 6486:1 6490:1 6504:1 6506:3 6516:1 6517:1 6567:1 6587:1 6746:1 6756:3 6780:1 6787:1 6978:1 7051:1 7135:1 7153:1 7281:1 7337:1 7402:1 7433:2 7456:1 7492:1 7493:2 7496:1 7515:1 7596:1 7684:1 7727:1 7744:4 7762:1 7767:4 7771:1 7791:1 7803:1 7819:1 7824:1 7949:1 8052:2 8072:1 8078:1 8090:1 8113:1 8123:1 8156:1 8182:1 8290:1 8292:1 8335:1 8479:1 8482:1 8638:1 8655:1 8716:1 8735:1 8773:1 8890:1 8954:1 8963:1 8990:2 8992:2 9114:1 9115:1 9163:2 9252:1 9265:2 9272:1 9363:1 9472:1 9517:1 9687:1 9746:1 9807:1 9813:2 9878:1 10066:2 10080:1 10258:1 10302:2 10526:2 10635:1 10651:1 10652:1 10892:1 11016:1 11027:1 11077:1 11444:1 11597:1 11701:1 11933:1 12219:1 12255:2 12302:3 12313:1 12431:1 12479:1 12579:1 12681:1 12879:1 12952:1 12977:2 13031:3 13117:4 13241:2 13580:1 13581:1 13589:1 13699:1 13898:1 14017:1 14089:1 14100:2 14161:1 14448:3 14724:1 14726:1 14757:1 14792:2 14838:1 15066:1 15235:1 15284:1 15293:1 15404:1 15537:1 16205:1 16273:1 16354:1 16583:1 16865:1 17292:1 17312:1 17504:1 17773:1 18136:1 18719:1 18785:1 18971:1 19012:1 19271:1 19945:1 20088:1 20120:1 20285:3 20810:2 21054:1 21188:1 21324:1 21692:1 22042:1 22272:1 22672:1 22783:2 22798:1 22808:1 23391:2 23743:1 23872:1 23984:1 24103:1 24141:1 24142:1 24143:1 24144:1 24145:1 24146:1 24147:1 24148:1 24149:1 24150:2 24151:1 24152:1 24153:1 24154:2 24155:1 24156:1 24157:1 24158:1 24159:1 24160:1 24161:1 24162:1 24163:3 24164:1 24165:1 24166:1 24167:1 24168:1 24169:1 24170:1 24171:1 24172:1 24173:1 24174:1 24175:1 24176:1 24177:1 24178:1 24179:1 24180:1 24181:1 24182:1 24183:1 24184:3 24185:1 24186:2 24187:1 24188:1 24189:1 24190:1 24191:1 24192:1 24193:1 24194:1 24195:1 24196:1 24197:1 24198:1 24199:1 24200:1 24201:1 24202:1 24203:1 24204:1 24205:1 24206:1 24207:1 24208:1 24209:1 24210:1 24211:1 24212:1 24213:1 #
-0.00037380119466078114099857887531186 2:1 5:3 13:2 18:1 23:1 27:2 28:2 36:1 45:2 52:1 55:1 62:3 67:1 68:2 74:1 75:1 83:1 92:1 96:2 106:2 108:1 109:1 112:1 114:4 121:5 122:1 126:1 128:1 130:1 141:1 146:7 148:5 155:1 157:3 158:1 163:2 165:1 175:16 187:9 189:2 193:8 200:1 202:12 203:4 204:2 217:1 219:2 229:1 231:1 237:1 242:1 243:3 245:1 248:1 255:3 261:4 262:1 267:1 268:1 272:2 276:2 278:2 280:2 282:1 287:2 300:1 305:1 314:1 328:1 335:1 337:4 340:1 342:2 348:1 351:13 353:1 357:1 359:4 360:2 367:3 368:17 374:1 388:1 397:1 400:1 411:1 429:1 435:1 446:6 451:1 456:1 457:2 467:1 471:1 480:3 484:2 486:1 496:1 512:2 516:1 517:1 531:1 534:1 536:1 540:1 543:1 550:2 558:2 561:1 563:2 569:1 576:2 580:6 582:1 586:2 588:1 594:1 604:1 607:1 612:1 620:2 624:1 628:2 647:4 660:1 661:2 685:1 692:1 693:2 715:1 749:2 753:4 755:1 765:2 767:1 809:28 817:1 824:1 829:1 838:2 840:1 848:2 856:1 905:6 910:1 913:3 921:1 925:2 926:2 934:1 936:2 946:4 948:5 952:1 953:2 969:2 992:1 994:1 1003:1 1010:1 1012:1 1013:1 1046:1 1053:5 1055:1 1057:1 1062:1 1069:1 1074:1 1084:1 1085:5 1091:1 1097:2 1122:1 1135:1 1136:2 1140:4 1169:1 1171:1 1194:5 1206:1 1207:1 1213:2 1236:1 1239:1 1242:1 1243:2 1251:1 1268:3 1269:1 1270:2 1283:1 1289:1 1299:1 1304:1 1314:3 1324:2 1372:1 1376:1 1378:1 1385:3 1393:1 1403:2 1433:2 1443:2 1462:2 1476:17 1482:1 1527:3 1534:1 1535:2 1556:2 1559:1 1569:1 1574:1 1575:1 1580:4 1628:1 1639:3 1650:1 1654:1 1660:3 1666:2 1684:2 1694:1 1717:1 1740:1 1746:1 1786:6 1791:1 1805:1 1834:2 1839:2 1842:5 1850:1 1889:1 1893:3 1909:1 1915:1 1925:1 1931:1 1953:1 1958:1 1961:1 1989:6 2012:1 2024:1 2063:2 2066:1 2076:1 2087:1 2100:5 2107:2 2123:2 2136:1 2143:1 2156:2 2186:1 2197:1 2198:1 2199:1 2220:1 2225:1 2226:1 2286:2 2304:1 2319:1 2327:1 2342:1 2353:1 2387:3 2390:2 2400:1 2403:1 2408:2 2411:1 2424:1 2447:1 2455:1 2485:1 2500:1 2522:1 2527:1 2541:1 2542:1 2555:1 2560:1 2591:1 2611:1 2672:1 2683:1 2690:1 2693:1 2715:1 2724:9 2742:1 2749:1 2786:1 2803:4 2822:1 2837:16 2849:1 2877:2 2883:2 2893:1 2916:2 2930:1 2931:2 2934:1 2945:1 2972:2 2988:1 2993:1 3002:2 3033:1 3043:1 3044:1 3106:1 3113:1 3135:1 3157:1 3163:1 3168:1 3169:1 3175:1 3207:1 3241:1 3264:1 3279:1 3288:2 3291:1 3299:1 3314:1 3319:1 3337:2 3377:1 3386:1 3393:1 3411:1 3456:2 3474:1 3498:1 3499:1 3553:1 3592:1 3609:1 3610:3 3615:1 3617:1 3618:1 3621:1 3627:2 3639:1 3648:1 3665:1 3687:1 3691:1 3708:2 3738:1 3760:1 3779:1 3828:1 3868:1 3887:1 3922:1 3959:1 3977:3 3994:2 4005:1 4025:3 4050:1 4105:1 4116:1 4185:1 4232:4 4233:2 4237:1 4251:2 4269:1 4341:1 4354:1 4383:1 4385:1 4408:2 4417:2 4418:1 4426:1 4462:1 4498:1 4509:2 4515:1 4524:6 4566:1 4580:1 4585:1 4596:2 4619:1 4630:1 4640:1 4773:1 4805:1 4816:1 4825:1 4948:1 5140:1 5170:1 5176:2 5250:1 5374:1 5387:1 5409:4 5503:1 5514:1 5585:1 5611:1 5614:1 5621:1 5682:1 5766:1 5811:1 5844:1 5865:2 5956:2 5957:1 6034:1 6076:1 6092:1 6174:1 6205:1 6220:1 6228:1 6389:1 6412:1 6648:1 6654:1 6671:1 6698:1 6746:1 6748:1 7051:1 7179:1 7392:1 7470:1 7477:1 7495:2 7537:3 7559:1 7595:2 7690:1 7699:1 7724:1 7805:1 7878:1 7884:1 8090:1 8156:1 8157:1 8197:1 8342:1 8351:1 8497:1 8515:1 8652:1 8689:1 8732:1 8768:1 8786:1 8814:1 8997:1 9059:1 9202:1 9351:1 9599:1 9656:1 9921:1 9946:1 9962:1 9973:1 10055:1 10205:1 10256:1 10304:1 10316:1 10318:2 10363:2 10589:2 10893:1 11001:1 11145:1 11151:1 11406:2 11490:1 11652:1 11875:6 12119:2 12185:1 12204:1 12256:2 12285:1 12383:1 12399:1 12409:1 12430:1 12541:1 12592:1 12683:1 12704:1 12773:1 12976:1 13143:1 13627:2 13638:1 13702:1 13716:1 13718:1 13813:1 14318:1 14486:1 14537:1 14607:1 14648:2 14733:1 14799:1 14928:1 15025:1 15165:1 15422:1 15574:1 16415:5 16479:1 16579:1 16784:1 16902:1 17016:1 17051:1 17056:1 17060:1 17074:1 17325:1 17448:1 17594:1 17605:1 17613:1 18134:1 18705:1 18964:1 18997:1 19048:1 19138:1 19342:1 19485:1 19494:2 19501:1 19594:1 19792:3 19803:1 19846:1 19979:1 20055:1 20179:1 20643:1 21108:1 21146:1 21195:1 21326:1 21396:1 21521:1 22049:1 22057:1 22058:1 22106:1 22344:1 22391:1 22754:2 22755:7 22760:2 22901:22 23540:1 23541:1 23543:1 23547:1 23551:1 23556:1 23559:1 23577:1 23589:1 23590:1 23599:1 23605:1 23608:1 23633:1 23637:1 23642:1 23668:1 24190:1 24409:1 24488:1 24555:1 24912:1 24971:1 24978:1 25148:1 25178:1 25520:1 27224:1 27329:1 27330:1 27331:1 27332:1 27333:1 27334:1 27335:1 27336:2 27337:1 27338:1 27339:3 27340:1 27341:2 27342:1 27343:1 27344:1 27345:1 27346:1 27347:1 27348:1 27349:1 27350:1 27351:2 27352:4 27353:1 27354:1 27355:1 27356:3 27357:1 27358:1 27359:1 27360:1 27361:1 27362:1 27363:1 27364:1 27365:1 27366:1 27367:1 27368:1 27369:1 27370:1 27371:1 27372:1 27373:1 27374:1 27375:1 27376:2 27377:2 27378:1 27379:3 27380:1 27381:1 27382:1 27383:1 27384:2 27385:1 27386:1 27387:1 27388:1 27389:1 #
0.0013001129432948588596219430257861 2:2 121:1 165:1 232:2 280:1 299:2 332:1 366:1 446:2 459:1 482:2 486:1 511:1 580:1 624:1 840:1 1085:1 1267:1 1279:1 1304:1 1396:1 1462:1 1556:1 1648:1 1746:1 1880:1 1934:1 1957:1 1981:1 1983:1 2070:1 2076:1 2199:2 2440:1 2444:1 2472:1 2508:1 2629:1 2705:2 2749:1 2774:1 2787:1 2837:5 2872:1 2883:1 2941:1 2984:1 3033:2 3035:1 3299:1 3328:1 3377:1 3495:1 3607:1 3623:2 3658:1 3693:1 3720:1 3958:1 4205:1 4219:1 4270:1 4368:1 4784:1 4804:1 5553:1 5767:1 5784:1 5805:1 6060:1 6506:1 6715:1 7291:2 7429:1 7847:1 8043:1 8210:1 8628:1 8642:1 8643:1 8644:2 8645:1 8646:1 8647:1 8648:1 8649:1 8650:1 8651:1 8652:1 8653:1 8654:1 8655:1 8656:1 8657:1 8658:1 8659:1 8660:1 8661:1 8662:1 8663:1 #
0.0013001129432948588596219430257861 7:1 13:1 15:1 28:3 29:1 49:2 59:1 62:1 66:4 68:3 77:3 99:1 117:6 118:1 121:4 124:1 132:1 136:1 140:1 163:1 164:1 165:1 175:1 195:8 197:1 202:1 203:2 204:3 237:1 243:2 250:3 251:1 256:1 262:1 266:1 276:1 277:1 278:1 279:2 280:3 287:3 291:1 296:3 299:1 305:1 328:1 332:3 335:1 345:2 396:1 400:1 412:1 443:2 446:1 448:5 456:2 467:1 470:1 471:2 475:1 478:1 489:3 500:2 508:2 543:1 545:1 552:1 580:1 599:1 630:1 636:1 658:1 677:1 681:1 724:1 764:1 802:1 849:1 867:2 869:1 871:1 885:1 910:2 913:1 921:2 933:2 935:1 943:1 946:1 951:1 973:1 981:3 1071:1 1076:6 1085:3 1092:1 1113:1 1123:2 1137:6 1209:1 1228:1 1243:1 1253:1 1270:1 1287:2 1326:1 1376:1 1441:1 1444:1 1453:1 1532:1 1543:1 1553:1 1556:2 1594:1 1639:1 1648:1 1721:1 1782:1 1827:1 1837:2 1847:2 1876:1 1896:1 1920:1 1931:1 1934:1 1979:1 1981:1 2040:1 2128:1 2159:1 2177:2 2258:1 2279:1 2314:1 2317:2 2328:1 2342:1 2398:2 2418:1 2424:1 2440:1 2447:2 2486:1 2548:1 2579:1 2663:1 2716:1 2803:4 2822:1 2837:9 2853:2 2876:1 2883:1 2893:1 2911:1 2941:1 2950:1 2972:2 2978:2 3050:1 3106:1 3169:2 3224:1 3230:1 3243:1 3251:2 3281:1 3292:1 3308:1 3354:1 3367:3 3393:1 3434:1 3456:3 3498:1 3499:1 3512:1 3520:1 3538:1 3551:1 3570:2 3590:1 3599:1 3622:1 3658:1 3663:1 3742:1 3855:1 3894:1 3941:1 3943:1 3950:1 4043:1 4143:2 4236:1 4411:1 4418:1 4502:1 4509:1 4520:1 4620:1 4676:1 4680:1 4906:1 5039:1 5044:1 5083:1 5089:1 5153:1 5154:1 5209:1 5332:1 5350:2 5352:1 5353:1 5362:1 5365:1 5412:1 5438:1 5759:1 5792:2 5795:1 5800:2 5862:1 5931:1 6088:1 6105:1 6206:1 6221:2 6230:2 6512:1 6520:1 6777:1 6885:1 7196:1 7282:1 7319:1 7472:1 7474:1 7577:1 7587:1 7602:1 7616:1 7673:1 7738:1 8157:1 8302:1 8496:1 9658:1 9758:1 9938:1 10334:1 10361:1 10365:1 10410:1 11132:1 11496:1 11829:1 11957:1 12069:1 12121:1 12548:1 13013:1 13162:1 13611:2 13737:1 13933:1 14013:1 14014:2 14015:1 14016:2 14017:1 14018:1 14019:1 14020:1 14021:1 14022:1 14023:1 14024:1 14025:1 14026:1 14027:1 14028:1 14029:1 14030:1 14031:1 14032:1 14033:1 14034:1 14035:1 14036:1 14037:1 14038:1 14039:2 14040:1 14041:1 14042:1 14043:1 14044:1 14045:1 14046:1 14047:1 14048:1 14049:1 14050:1 14051:3 14052:1 14053:1 14054:1 14055:1 14056:1 14057:1 #
0.0013001129432948588596219430257861 2:2 77:2 79:1 117:1 121:4 136:1 158:1 165:1 175:1 197:1 204:2 250:1 268:1 272:1 280:1 292:6 393:1 400:1 401:1 452:1 465:2 468:1 475:3 509:1 552:1 580:3 933:1 945:3 962:1 981:1 1085:1 1092:2 1113:1 1123:1 1138:1 1228:1 1304:1 1322:1 1387:4 1453:2 1700:1 1738:1 1782:1 1795:1 1824:1 1829:2 1847:1 1849:2 1863:1 1934:1 2003:1 2040:1 2070:1 2072:1 2128:1 2243:1 2261:1 2314:1 2541:1 2581:1 2610:1 2651:1 2683:1 2714:1 2719:1 2724:2 2771:4 2773:1 2810:2 2837:6 2872:3 2888:2 2908:4 3154:1 3197:2 3217:3 3322:1 3609:1 3614:2 3621:1 4009:1 4103:1 4199:4 4249:1 4703:2 4804:1 5078:1 5322:1 5341:1 5460:1 5494:2 5568:1 5848:1 6018:2 6050:1 6087:1 6614:1 6793:1 6913:2 7068:1 7351:1 7496:1 7775:1 8496:1 8823:1 8866:1 8867:1 8868:1 8869:1 8870:1 8871:1 8872:2 8873:1 8874:1 8875:1 8876:1 8877:1 8878:1 8879:3 8880:1 8881:1 8882:1 8883:1 8884:1 8885:1 8886:2 8887:2 8888:1 8889:1 8890:1 8891:1 8892:1 8893:1 8894:1 8895:1 8896:1 8897:1 8898:1 8899:1 8900:1 8901:1 8902:1 8903:1 8904:1 8905:1 8906:1 8907:1 8908:1 8909:2 8910:1 8911:1 8912:1 #
-0.0013001129432948588596219430257861 7:1 13:1 15:1 18:1 27:3 28:3 29:1 39:1 45:1 46:1 60:1 66:1 68:4 71:1 73:1 74:11 83:1 86:1 114:1 117:13 118:1 121:12 124:1 138:1 140:1 141:2 157:1 158:1 163:1 168:1 172:1 174:4 175:1 176:1 188:1 195:2 196:1 202:7 204:1 217:1 228:1 231:1 243:2 245:1 255:1 262:1 268:1 272:2 280:4 282:1 287:5 291:4 298:1 308:1 312:1 335:2 340:1 341:1 342:1 345:3 348:2 351:6 355:4 357:1 367:1 388:5 429:1 448:1 456:1 458:1 467:2 471:3 484:2 489:7 496:1 500:3 508:2 522:2 561:2 562:1 563:1 570:1 578:1 580:5 588:8 589:1 597:2 603:1 612:1 620:2 625:1 628:2 636:1 642:1 647:3 660:1 670:1 685:1 693:17 697:1 706:1 725:1 729:1 787:1 788:1 817:2 819:1 823:2 824:1 850:1 851:1 860:1 871:1 885:1 888:2 890:1 895:4 898:1 903:1 905:2 910:1 946:4 951:1 1010:1 1049:1 1076:3 1078:1 1079:2 1084:1 1085:1 1090:1 1093:2 1104:1 1122:5 1140:1 1161:1 1168:1 1185:2 1192:1 1201:3 1207:1 1221:1 1232:1 1236:1 1243:2 1250:1 1259:2 1287:2 1299:1 1335:1 1369:1 1389:1 1424:2 1443:2 1450:1 1456:2 1477:1 1482:2 1499:1 1509:1 1512:1 1525:1 1531:4 1535:3 1556:1 1559:2 1580:2 1585:1 1590:1 1603:1 1614:1 1622:4 1630:1 1636:2 1639:3 1640:2 1647:1 1654:1 1660:1 1662:1 1668:1 1677:1 1686:1 1704:1 1815:1 1834:1 1891:1 1897:1 1908:2 1915:1 1955:2 1957:1 1963:1 1972:1 1983:1 1999:1 2040:1 2076:2 2094:3 2115:1 2182:2 2216:1 2225:1 2249:1 2258:1 2266:2 2297:1 2299:1 2401:1 2444:1 2476:1 2489:1 2493:3 2503:1 2519:1 2591:1 2632:1 2713:2 2717:1 2803:3 2821:1 2831:1 2876:1 2894:1 2976:1 3025:1 3051:1 3064:11 3066:6 3093:1 3105:1 3110:1 3147:1 3169:1 3172:1 3173:1 3233:1 3253:1 3288:2 3339:1 3364:1 3437:1 3451:1 3498:1 3533:1 3578:1 3594:1 3596:1 3622:1 3630:1 3634:1 3665:1 3725:1 3738:1 4028:1 4046:1 4133:1 4170:1 4177:1 4210:1 4373:1 4395:1 4471:1 4498:1 4534:1 4536:2 4586:1 4595:1 4672:1 4688:1 4807:1 4814:1 4820:1 4916:1 4927:1 5001:1 5020:1 5029:1 5032:4 5126:1 5174:1 5207:1 5318:2 5397:1 5410:1 5417:2 5438:1 5445:1 5487:1 5548:1 5596:1 5600:1 5683:1 5750:1 6077:1 6120:1 6174:1 6205:1 6223:1 6232:1 6430:1 6506:1 6626:1 6693:1 6870:1 7034:2 7100:1 7176:1 7196:1 7293:1 7434:1 7581:2 7619:1 7626:1 7632:1 7633:1 7819:1 8063:1 8164:1 8233:1 8324:1 8343:1 8464:1 8485:1 8496:1 8516:1 8518:1 8573:1 8664:1 8875:1 9163:1 9584:1 9610:4 9622:1 9739:3 10167:1 10462:1 10541:1 10545:1 10568:3 10582:1 10587:1 11370:1 11458:1 11605:1 11703:1 11707:1 11827:1 12181:1 12302:1 12383:3 12394:1 12398:1 13135:1 13386:1 13778:1 14021:1 14336:1 14654:1 14846:1 15401:1 16780:1 17357:1 17667:2 17765:2 17781:1 18189:1 19210:1 19211:1 19212:1 19213:1 19214:1 19215:1 19216:1 19217:1 19218:1 19219:1 19220:2 19221:1 19222:1 19223:1 19224:1 19225:3 19226:1 19227:1 19228:1 19229:1 19230:1 19231:1 19232:1 19233:1 19234:1 19235:1 19236:1 19237:1 19238:1 19239:1 19240:1 19241:1 #
-0.0013001129432948588596219430257861 2:3 7:1 42:2 117:1 121:1 146:1 165:1 174:3 193:1 202:2 243:1 250:1 256:1 280:2 287:2 291:1 294:1 345:1 353:1 380:1 401:1 471:1 500:1 580:2 628:2 692:1 905:1 919:1 925:1 975:1 991:1 1140:2 1299:1 1304:1 1305:1 1402:1 1469:1 1591:1 1673:1 1922:1 1934:1 1983:1 2076:1 2091:1 2143:1 2258:1 2263:1 2327:1 2365:1 2464:1 2634:1 2655:1 2724:1 2822:1 2837:1 2953:1 2984:1 3003:1 3222:1 3599:1 3690:1 3922:1 4235:1 4453:1 4477:1 4985:1 4990:1 5157:1 5311:1 5368:1 5511:1 5618:1 6137:1 6570:1 7432:1 8566:1 9047:1 9393:1 12221:1 13133:1 13316:1 13863:1 17291:1 17904:1 17905:1 17906:1 17907:1 17908:1 17909:1 17910:1 17911:1 #
-0.0013001129432948588596219430257861 18:2 27:1 38:3 42:1 46:2 63:1 66:1 86:2 96:4 117:1 121:2 154:1 163:1 174:2 202:1 219:1 235:1 245:1 278:1 290:1 308:1 332:4 340:2 345:1 357:1 426:1 468:1 471:1 500:1 561:1 639:1 793:1 863:1 876:1 951:4 975:1 1076:1 1348:1 1389:1 1554:1 1630:1 2043:4 2422:1 2507:1 2972:2 3789:1 4365:1 4439:1 4561:1 4878:2 5362:1 5692:1 7034:1 7445:2 8798:1 8988:1 9420:1 10462:1 10662:1 15865:2 17266:1 17628:2 17629:1 17630:1 17631:1 17632:1 17633:1 17634:1 17635:1 17636:1 #
0.0013001129432948588596219430257861 3:3 7:1 8:1 13:3 27:2 28:3 29:3 39:2 54:1 57:2 62:1 66:4 68:5 77:12 83:5 85:1 106:2 114:1 117:9 121:4 122:1 126:1 128:2 136:2 138:1 145:1 158:5 163:2 175:9 177:1 186:1 187:3 195:7 202:1 204:6 243:1 245:1 250:11 262:2 266:5 272:1 276:3 277:2 278:1 280:1 282:1 284:1 287:4 292:4 296:2 299:1 308:1 328:1 335:2 342:6 345:7 351:1 356:1 381:1 383:1 384:1 389:1 401:1 407:3 442:1 446:6 448:4 452:8 454:1 459:2 466:1 467:1 471:7 475:8 488:1 491:2 500:7 508:1 509:1 522:1 525:1 534:2 540:1 546:1 547:1 569:1 571:1 576:3 582:5 589:2 593:2 596:1 597:1 599:1 603:2 610:4 639:1 643:1 646:2 648:1 670:1 682:1 685:2 696:2 724:5 741:1 744:3 792:1 817:1 824:1 853:1 885:1 890:1 910:1 921:15 933:11 940:6 945:4 968:1 981:1 996:1 1000:1 1014:1 1026:1 1042:2 1046:1 1049:1 1051:1 1062:2 1076:1 1084:1 1085:2 1097:1 1105:1 1110:1 1130:1 1132:2 1140:3 1150:1 1170:1 1171:1 1177:1 1243:2 1277:2 1286:3 1287:1 1304:3 1309:1 1331:1 1350:2 1370:1 1371:1 1387:3 1389:1 1390:1 1391:1 1394:1 1440:1 1444:1 1453:9 1482:1 1498:1 1506:1 1532:1 1533:1 1534:1 1537:1 1543:4 1546:1 1575:1 1595:1 1602:2 1605:2 1630:2 1644:1 1647:1 1660:1 1663:1 1673:1 1709:1 1738:1 1751:2 1753:1 1759:1 1782:2 1800:1 1824:1 1827:1 1829:1 1834:1 1847:1 1851:1 1854:3 1861:1 1872:3 1876:1 1878:1 1892:1 1915:1 1934:1 1958:1 2001:1 2019:2 2020:1 2023:1 2024:1 2047:3 2072:1 2073:1 2076:1 2082:1 2091:1 2096:1 2107:2 2122:2 2149:1 2198:1 2210:3 2243:1 2278:1 2279:1 2280:1 2286:1 2291:1 2294:1 2299:1 2301:2 2307:4 2314:2 2317:4 2320:2 2324:2 2378:2 2408:1 2424:1 2441:1 2447:1 2479:1 2537:1 2541:3 2546:1 2551:1 2575:1 2591:7 2634:1 2683:1 2701:1 2713:1 2714:6 2722:1 2723:1 2724:4 2773:3 2774:1 2784:1 2787:1 2810:1 2813:1 2815:1 2817:1 2837:7 2870:1 2883:1 2916:1 2934:1 2941:1 2966:2 2972:1 2976:1 2977:1 2988:4 3002:1 3003:2 3007:1 3009:1 3017:1 3022:1 3024:3 3035:1 3039:2 3044:1 3079:1 3096:2 3154:1 3188:1 3251:3 3269:2 3303:1 3305:1 3319:1 3365:1 3367:1 3378:1 3415:1 3437:1 3454:1 3498:1 3512:1 3520:1 3543:1 3553:1 3568:1 3575:1 3576:1 3589:1 3610:1 3614:1 3615:1 3622:1 3627:1 3647:1 3653:1 3658:1 3661:1 3663:1 3678:1 3774:1 3823:1 3851:1 3900:1 3933:1 3973:1 4006:1 4013:1 4029:1 4031:1 4036:1 4047:2 4050:2 4103:2 4104:1 4130:1 4154:1 4176:1 4199:2 4232:1 4246:1 4296:1 4328:1 4394:1 4453:1 4566:1 4676:1 4680:2 4878:1 4906:1 4959:1 4961:1 4977:1 4997:1 5071:1 5084:1 5085:1 5114:1 5117:1 5196:1 5246:1 5272:1 5292:1 5297:2 5350:2 5366:1 5416:5 5500:1 5504:1 5509:1 5510:1 5580:2 5585:1 5600:1 5622:2 5629:2 5715:1 5730:1 5744:1 5792:1 5805:1 5871:1 5934:1 5997:1 6034:2 6050:1 6082:1 6187:1 6205:1 6212:5 6285:1 6357:1 6360:2 6389:1 6441:2 6477:1 6499:1 6503:1 6511:1 6512:1 6574:2 6576:1 6707:1 6765:1 6844:1 6875:1 6913:4 6965:1 6999:1 7126:1 7214:1 7305:1 7318:1 7323:1 7327:1 7329:2 7330:2 7348:1 7360:1 7466:1 7496:2 7614:1 7634:1 7643:1 7744:1 7767:1 7785:1 7803:1 7848:1 7849:1 8057:2 8113:1 8116:1 8160:1 8176:1 8243:1 8252:1 8266:1 8278:2 8485:1 8697:1 8761:1 8896:1 8909:1 9034:2 9109:2 9160:1 9321:4 9369:1 9472:3 9578:1 9597:1 9632:1 9640:1 9654:1 9671:1 9738:1 9813:2 9848:1 9849:1 9866:2 9959:1 9964:1 10118:1 10234:1 10362:1 10526:1 10534:1 10669:1 10800:1 10963:1 11001:1 11025:1 11037:1 11077:2 11229:1 11234:1 11388:1 11467:1 11504:1 11732:1 11870:1 12121:1 12296:1 12526:1 12738:1 12774:1 12986:2 13031:1 13040:1 13047:1 13052:1 13117:1 13386:1 13549:1 13707:1 13737:1 13847:2 14017:1 14047:1 14103:1 14113:1 14161:1 14429:1 14584:2 14724:1 14725:1 14726:1 14727:1 14728:1 14729:1 14730:1 14731:1 14732:1 14733:1 14734:1 14735:2 14736:1 14737:1 14738:1 14739:1 14740:1 14741:1 14742:1 14743:1 14744:1 14745:2 14746:1 14747:1 14748:1 14749:1 14750:1 14751:1 14752:1 14753:1 14754:1 14755:1 14756:1 14757:1 14758:1 14759:1 14760:1 14761:1 14762:1 14763:1 14764:1 14765:1 14766:1 14767:1 14768:1 14769:1 14770:1 14771:1 14772:1 14773:1 14774:1 14775:1 14776:1 14777:1 14778:1 14779:1 14780:1 14781:1 14782:1 14783:1 14784:1 14785:1 14786:1 14787:3 14788:1 14789:1 14790:1 14791:1 14792:2 14793:1 14794:1 14795:1 14796:1 14797:2 14798:1 14799:1 14800:1 14801:1 14802:1 14803:1 14804:1 14805:1 14806:1 14807:1 14808:1 14809:1 14810:1 14811:1 14812:1 14813:1 14814:1 14815:1 14816:1 14817:2 14818:1 14819:1 14820:1 14821:1 14822:1 14823:1 14824:1 14825:1 #
0.0011673446353615273430454069014672 2:2 9:1 13:1 17:1 27:2 28:4 37:1 47:1 49:1 52:1 62:1 77:1 78:1 84:1 121:1 126:1 130:1 142:1 163:1 165:1 175:11 185:1 187:1 203:1 232:1 235:1 245:1 247:2 256:1 264:1 276:2 280:3 287:1 291:2 301:1 305:1 308:10 325:1 328:1 332:1 335:1 336:1 344:3 351:5 355:1 356:4 361:1 363:1 368:1 370:1 377:1 380:1 398:1 399:1 400:1 408:2 415:1 446:14 456:1 457:1 477:1 482:1 484:1 509:1 511:1 516:1 543:1 552:1 556:1 562:1 580:1 604:1 618:1 619:1 681:1 816:1 817:2 890:1 921:1 936:1 942:1 958:4 973:1 974:1 996:4 999:1 1012:1 1019:1 1046:2 1051:1 1062:2 1068:2 1072:2 1076:2 1078:1 1084:1 1085:1 1092:2 1116:1 1123:2 1134:1 1140:1 1157:2 1161:1 1169:1 1171:1 1187:3 1216:1 1221:1 1237:1 1270:1 1286:1 1304:2 1309:1 1311:1 1348:2 1349:1 1357:1 1372:1 1376:1 1403:1 1417:2 1424:1 1437:2 1446:1 1477:1 1478:2 1482:6 1512:1 1537:1 1556:1 1576:1 1577:1 1585:1 1590:1 1591:1 1595:1 1636:2 1638:1 1645:1 1647:1 1650:1 1660:1 1673:1 1718:1 1726:1 1740:1 1751:1 1764:1 1837:1 1852:1 1884:1 1891:1 1893:1 1904:1 1921:1 1953:1 1981:2 1983:4 2020:2 2040:1 2041:1 2060:1 2065:1 2097:1 2136:1 2140:2 2183:1 2199:1 2239:1 2251:1 2266:1 2286:1 2302:1 2311:1 2328:1 2331:1 2411:2 2441:1 2443:1 2489:1 2505:1 2539:1 2542:1 2555:1 2564:2 2588:8 2608:1 2616:1 2618:2 2619:1 2635:1 2666:3 2700:8 2705:1 2720:1 2724:9 2756:1 2760:1 2784:1 2787:1 2803:1 2821:14 2822:1 2831:3 2837:13 2864:2 2865:2 2885:1 2887:1 2938:1 2972:1 2976:1 2980:2 3012:1 3022:1 3043:1 3044:1 3094:1 3131:2 3154:1 3201:1 3207:1 3241:1 3244:1 3277:1 3288:1 3305:1 3326:1 3340:2 3356:1 3357:1 3386:2 3408:1 3443:3 3498:1 3499:1 3520:1 3543:1 3544:1 3553:1 3568:1 3610:1 3648:1 3655:1 3658:1 3663:1 3664:2 3690:1 3708:1 3709:1 3739:2 3743:2 3757:1 3760:4 3761:1 3764:2 3780:1 3855:1 3908:1 3963:1 4029:1 4055:1 4079:1 4171:1 4178:1 4190:2 4207:1 4227:1 4237:1 4240:1 4284:1 4324:2 4339:1 4418:1 4458:1 4460:1 4465:1 4492:1 4509:2 4537:1 4545:1 4568:1 4585:1 4604:1 4613:1 4630:1 4709:1 4762:2 4767:1 4804:1 4805:1 4829:1 4894:1 4907:1 4990:1 5016:1 5018:1 5030:1 5078:1 5084:1 5090:1 5140:1 5163:1 5246:1 5250:1 5266:5 5267:1 5332:1 5343:1 5350:1 5382:1 5416:1 5498:1 5500:1 5513:1 5582:2 5626:4 5653:1 5730:1 5798:1 5827:1 5839:1 5850:1 5863:1 5874:1 5884:9 5919:1 5989:5 5997:1 6010:1 6064:1 6081:1 6108:1 6166:1 6285:1 6388:1 6451:1 6506:1 6508:1 6521:1 6523:1 6542:1 6574:3 6624:1 6670:1 6683:1 6715:1 6869:1 6892:1 7082:1 7194:1 7315:1 7327:1 7405:1 7462:2 7529:1 7537:1 7611:2 7717:1 7743:1 7878:1 7944:1 8001:1 8118:1 8383:1 8666:1 8726:1 8737:1 8862:1 8896:1 9018:1 9027:1 9032:1 9155:1 9181:1 9408:3 9511:1 9564:1 9655:2 9661:1 9671:1 9744:3 9950:1 10058:2 10275:1 10287:1 10291:1 10373:1 10522:1 10588:1 10629:1 10768:1 10997:1 11038:1 11039:1 11040:1 11041:1 11042:1 11043:1 11044:1 11045:1 11046:1 11047:1 11048:1 11049:1 11050:2 11051:1 11052:1 11053:1 11054:1 11055:1 11056:1 11057:1 11058:1 11059:1 11060:1 11061:2 11062:1 11063:1 11064:1 11065:1 11066:1 11067:1 11068:1 11069:1 11070:1 11071:1 11072:1 11073:1 11074:1 11075:1 11076:1 11077:1 11078:1 11079:1 11080:1 11081:1 11082:1 11083:1 11084:1 11085:1 11086:1 11087:1 11088:1 11089:1 11090:1 11091:1 11092:1 11093:1 11094:1 11095:1 11096:1 11097:1 11098:1 11099:1 11100:1 11101:1 11102:1 11103:1 11104:1 11105:1 11106:1 11107:1 11108:1 11109:1 11110:1 11111:1 11112:1 11113:1 11114:1 11115:1 11116:2 11117:2 11118:1 11119:1 11120:2 11121:1 11122:1 11123:1 11124:1 11125:1 11126:1 11127:1 11128:1 11129:1 11130:1 11131:1 11132:1 11133:4 11134:1 11135:1 11136:1 11137:1 11138:1 11139:1 11140:1 11141:1 11142:1 11143:1 11144:1 11145:1 11146:1 11147:1 11148:1 11149:1 11150:1 11151:1 11152:1 11153:1 11154:1 11155:1 11156:1 11157:1 11158:1 11159:1 11160:1 11161:1 11162:1 11163:1 11164:1 11165:1 11166:1 11167:1 11168:1 11169:1 11170:1 11171:1 11172:1 11173:1 11174:1 11175:1 11176:1 11177:1 11178:1 11179:1 11180:1 11181:1 11182:1 11183:1 11184:1 11185:1 11186:1 11187:1 11188:1 11189:1 11190:1 11191:1 11192:1 11193:3 11194:1 11195:1 11196:1 11197:1 #
-1.816548260430272870098906967673e-05 7:2 8:1 13:1 19:1 27:1 28:1 42:1 59:1 61:1 62:1 75:1 77:4 92:2 109:1 112:2 114:1 124:1 126:1 136:3 140:1 157:1 175:3 179:1 186:2 188:1 197:1 202:1 203:1 204:1 211:2 231:1 247:2 250:2 261:2 267:1 272:2 276:2 280:1 284:1 287:3 305:1 308:4 342:1 345:1 353:1 356:1 362:1 368:2 378:1 386:1 396:6 400:2 429:1 440:2 446:2 462:1 467:1 471:1 488:2 500:3 509:4 512:1 513:1 546:1 556:1 576:1 579:1 582:1 599:1 630:1 643:1 646:1 695:1 843:1 852:2 881:1 888:1 913:1 921:1 933:5 942:1 943:1 957:1 962:1 973:1 1046:1 1076:2 1085:2 1092:3 1110:1 1122:1 1138:3 1140:1 1245:1 1264:1 1286:10 1304:1 1338:1 1387:1 1403:1 1482:10 1490:1 1493:2 1499:1 1547:1 1554:1 1586:1 1595:1 1647:1 1660:1 1662:1 1734:1 1808:1 1823:1 1829:1 1847:1 1851:1 1878:3 1908:1 1934:1 1972:1 1984:1 2010:1 2024:1 2028:1 2031:1 2035:1 2047:1 2055:1 2094:1 2154:1 2156:2 2197:1 2200:1 2207:1 2258:1 2279:2 2281:4 2300:1 2311:2 2320:1 2328:1 2331:1 2424:1 2438:1 2480:1 2501:2 2505:1 2507:2 2588:3 2596:1 2610:2 2719:2 2724:1 2756:2 2781:1 2787:1 2821:4 2822:1 2837:4 2885:1 2895:2 2920:1 2950:1 3009:1 3013:1 3035:2 3062:1 3105:1 3128:1 3211:1 3251:1 3253:1 3288:1 3299:1 3303:1 3314:1 3378:1 3382:1 3397:1 3401:1 3403:1 3438:1 3445:1 3498:1 3526:1 3589:1 3610:2 3614:1 3647:1 3705:1 3732:1 3762:1 3795:1 3828:1 3908:1 3984:1 4005:1 4093:1 4118:1 4123:1 4199:2 4207:1 4375:1 4462:1 4673:1 5041:1 5184:1 5262:2 5311:1 5387:1 5554:1 5585:1 5630:1 5685:1 5719:3 5744:1 5775:1 5777:1 5785:1 5841:1 5884:1 5951:1 6049:2 6386:1 6486:1 6857:3 6867:3 6892:1 6913:1 6923:1 6930:1 7162:1 7282:1 7301:1 7620:1 7627:1 7683:1 7803:1 7959:2 8057:1 8187:1 8783:1 8869:1 8896:1 9032:1 9059:1 9225:1 9329:1 9454:1 9878:1 9894:1 9974:1 10012:1 10432:2 10466:2 10738:1 10800:1 10860:1 10961:1 10971:1 11206:1 11264:2 11320:1 11535:1 11647:1 11707:1 11880:1 12141:4 12158:1 12300:1 12479:1 12689:1 12752:1 13435:1 13504:1 13511:1 13823:1 14299:1 14376:1 14378:1 14387:2 14400:2 14793:1 15966:1 16707:1 17240:1 17473:1 17588:1 17746:1 17834:2 17849:1 18192:3 18509:1 19324:1 19455:1 19966:1 20267:1 20268:1 20865:1 21031:1 21034:1 21063:1 21409:1 21545:1 21711:1 21909:1 21910:1 21911:1 21912:1 21913:1 21914:1 21915:1 21916:1 21917:1 21918:2 21919:1 21920:1 21921:1 21922:1 21923:1 21924:1 21925:1 21926:1 21927:1 21928:1 21929:1 21930:1 21931:1 21932:1 21933:1 21934:1 21935:1 21936:1 21937:1 21938:1 21939:1 21940:1 21941:1 21942:1 21943:1 21944:1 21945:1 21946:1 21947:1 21948:1 21949:1 21950:1 21951:1 21952:1 21953:2 21954:2 21955:1 21956:1 21957:1 21958:1 21959:1 21960:1 21961:1 21962:1 21963:1 21964:1 #
0.00038072560414290925433211665307454 3:1 7:1 15:1 25:1 27:4 28:2 31:1 49:3 50:1 56:1 62:1 73:1 75:1 77:1 79:1 91:1 93:1 103:1 108:1 114:1 128:1 141:2 147:1 154:1 169:1 175:5 186:1 187:2 197:3 202:2 212:1 225:1 228:1 231:1 243:1 247:1 250:7 256:6 261:1 262:2 266:3 267:1 272:1 275:1 277:1 278:1 280:5 287:1 288:1 308:1 317:1 334:1 335:3 342:1 344:1 353:1 364:1 366:1 381:1 401:2 403:1 406:1 429:1 440:1 446:4 453:1 456:1 457:1 465:1 482:1 512:1 519:1 520:1 573:1 576:6 580:1 589:1 593:1 594:1 595:1 610:1 685:2 692:2 693:1 697:1 706:3 802:2 823:1 826:2 827:1 840:1 843:1 849:1 850:1 888:2 894:2 918:1 920:1 922:1 936:2 942:2 943:1 958:2 970:1 973:5 974:2 999:1 1006:1 1051:12 1056:4 1061:1 1062:2 1068:1 1078:2 1085:1 1092:1 1093:2 1110:1 1116:2 1123:1 1135:1 1138:1 1140:6 1192:1 1221:1 1236:2 1264:1 1265:1 1273:1 1282:1 1286:1 1299:3 1302:1 1304:2 1311:1 1322:1 1324:1 1339:2 1342:2 1351:1 1373:1 1376:1 1389:1 1396:1 1403:1 1434:1 1437:1 1444:1 1445:1 1482:1 1493:1 1498:1 1512:2 1513:1 1524:1 1535:1 1556:2 1576:2 1580:3 1587:1 1590:1 1591:7 1596:1 1602:1 1630:1 1636:1 1639:2 1645:1 1647:3 1660:1 1666:1 1674:1 1677:2 1679:1 1682:1 1756:1 1762:1 1771:1 1786:1 1793:1 1800:1 1803:1 1814:1 1819:1 1831:1 1834:1 1843:1 1847:1 1861:1 1873:1 1902:1 1905:1 1914:1 1921:1 1934:1 1983:1 1988:1 1990:1 2000:1 2012:1 2019:2 2040:3 2065:5 2075:1 2082:1 2094:1 2110:1 2123:1 2134:1 2144:1 2156:2 2173:1 2183:2 2193:2 2207:1 2236:1 2273:1 2278:1 2285:1 2286:1 2330:1 2331:1 2339:1 2342:1 2348:1 2374:2 2379:1 2388:1 2400:1 2410:1 2463:1 2585:1 2588:1 2606:4 2616:2 2635:1 2643:1 2666:2 2709:5 2724:11 2743:1 2751:1 2754:1 2756:1 2757:1 2770:1 2771:1 2781:1 2790:1 2794:2 2803:1 2813:1 2817:1 2818:1 2821:1 2822:2 2837:8 2846:1 2894:1 2904:1 2923:3 2930:1 2931:1 2963:2 2972:2 2983:1 3003:2 3009:1 3014:1 3022:1 3030:1 3032:1 3033:1 3061:2 3069:1 3082:2 3096:1 3105:1 3159:2 3169:1 3201:2 3213:1 3226:1 3237:1 3243:1 3245:1 3258:3 3261:3 3265:1 3280:1 3288:1 3299:1 3327:2 3367:1 3370:1 3389:1 3411:1 3451:2 3453:1 3456:3 3461:1 3463:1 3499:1 3520:1 3536:1 3539:1 3544:2 3574:1 3594:1 3648:1 3663:1 3672:1 3690:3 3730:1 3735:1 3745:1 3752:4 3754:1 3830:1 3901:5 3913:1 3914:1 3945:1 3954:1 3969:1 4003:1 4005:2 4029:1 4043:1 4050:1 4079:1 4093:1 4097:1 4103:1 4104:1 4116:1 4136:3 4144:1 4148:2 4202:1 4208:1 4236:1 4278:1 4310:1 4328:1 4331:2 4334:1 4346:1 4366:1 4412:1 4414:1 4423:1 4439:1 4440:1 4451:1 4515:1 4529:1 4546:1 4562:1 4574:2 4585:1 4641:1 4655:1 4659:1 4671:1 4701:1 4716:1 4776:2 4790:1 4867:1 4869:1 4873:1 4935:3 4966:1 5039:1 5053:1 5057:1 5083:1 5098:1 5140:1 5143:1 5158:1 5246:1 5250:1 5285:1 5300:1 5311:1 5321:1 5427:2 5453:1 5577:1 5617:1 5630:1 5665:1 5676:1 5722:1 5761:1 5838:2 5983:1 6010:3 6024:1 6029:1 6092:1 6105:1 6145:1 6205:1 6285:1 6469:1 6506:1 6539:1 6546:1 6566:1 6567:1 6573:1 6617:1 6651:2 6681:1 6703:2 6706:11 6719:1 6729:1 6759:1 6827:1 6889:1 6899:1 6941:3 6986:1 7022:1 7100:1 7291:1 7292:1 7353:1 7354:3 7366:1 7368:1 7452:1 7510:1 7520:1 7577:1 7615:1 7682:1 7713:3 7773:1 7863:1 7884:1 7898:1 7926:2 7948:1 7987:1 8061:1 8156:1 8187:1 8297:1 8357:1 8388:1 8390:1 8479:1 8496:1 8509:1 8543:1 8568:1 8606:3 8612:2 8628:1 8639:3 8761:1 8869:1 8881:1 9105:1 9151:1 9168:1 9203:1 9234:1 9278:1 9343:1 9358:1 9369:1 9474:2 9484:2 9499:1 9513:1 9728:1 9789:1 9820:1 9930:1 9950:1 9961:1 9962:1 9999:1 10018:1 10066:1 10069:1 10073:1 10125:1 10190:1 10230:2 10258:1 10306:1 10339:1 10348:2 10378:1 10397:1 10479:1 10611:1 10659:1 10662:1 10679:1 10701:1 10732:1 11038:1 11056:1 11078:1 11259:1 11293:1 11339:3 11347:1 11439:2 11454:1 11490:1 11541:1 11610:1 11679:1 11807:1 11808:2 11809:1 11810:1 11811:1 11812:1 11813:1 11814:1 11815:1 11816:1 11817:1 11818:1 11819:1 11820:1 11821:1 11822:1 11823:1 11824:1 11825:2 11826:1 11827:1 11828:1 11829:1 11830:1 11831:1 11832:1 11833:1 11834:1 11835:1 11836:1 11837:1 11838:1 11839:1 11840:1 11841:1 11842:1 11843:1 11844:1 11845:1 11846:1 11847:1 11848:2 11849:1 11850:1 11851:1 11852:1 11853:1 11854:2 11855:1 11856:1 11857:1 11858:1 11859:2 11860:1 11861:1 11862:1 11863:1 11864:1 11865:2 11866:1 11867:1 11868:1 11869:1 11870:1 11871:1 11872:1 11873:1 11874:1 11875:1 11876:1 11877:1 11878:1 11879:1 11880:1 11881:1 11882:1 11883:1 11884:1 11885:1 11886:1 11887:1 11888:1 11889:1 11890:1 11891:1 11892:1 11893:1 11894:1 11895:1 11896:1 11897:1 11898:1 11899:1 11900:1 11901:1 11902:1 11903:1 11904:1 11905:1 11906:2 11907:1 11908:1 11909:1 11910:1 11911:1 11912:1 11913:1 11914:1 11915:1 11916:1 11917:1 11918:1 11919:1 11920:1 11921:1 11922:1 11923:1 11924:1 11925:1 11926:1 11927:2 11928:1 11929:1 11930:1 11931:1 11932:1 11933:1 11934:2 11935:1 11936:2 11937:1 11938:1 11939:1 11940:1 11941:1 11942:1 11943:1 11944:1 11945:1 11946:1 11947:1 11948:1 11949:1 11950:1 11951:1 11952:1 11953:1 11954:1 11955:1 11956:1 11957:1 11958:1 11959:1 11960:3 11961:1 11962:1 11963:1 11964:1 11965:1 11966:1 11967:1 11968:1 11969:1 11970:1 11971:2 11972:1 11973:2 11974:1 11975:1 11976:1 11977:1 11978:3 11979:1 11980:1 11981:1 11982:1 11983:1 11984:1 11985:1 11986:1 11987:1 11988:1 11989:1 11990:1 11991:2 11992:1 11993:7 11994:2 11995:1 11996:1 11997:1 11998:1 11999:1 12000:1 12001:1 12002:1 12003:1 12004:1 12005:1 12006:1 12007:1 12008:1 12009:2 12010:1 12011:1 12012:1 12013:3 12014:1 12015:1 12016:3 12017:1 12018:1 12019:1 12020:1 12021:1 12022:1 12023:1 12024:1 12025:1 12026:1 12027:1 12028:1 12029:1 12030:1 12031:1 12032:1 12033:1 12034:1 12035:1 12036:1 12037:1 12038:1 12039:1 12040:1 12041:1 12042:1 12043:1 12044:1 12045:1 12046:1 12047:1 12048:1 12049:1 12050:1 12051:1 12052:1 12053:1 12054:2 12055:4 12056:3 12057:1 12058:1 12059:1 12060:1 12061:1 12062:1 12063:1 12064:1 12065:1 #
0.00076282465930474865380139792847558 2:2 7:2 9:1 13:3 15:1 27:2 29:1 39:1 41:1 52:1 63:1 68:1 77:1 103:3 114:1 117:1 119:4 121:1 123:1 126:11 132:1 136:1 145:1 163:1 171:1 175:8 186:1 200:1 202:3 204:2 219:2 229:1 230:3 231:6 243:1 247:4 249:1 261:1 262:2 264:3 267:10 272:8 279:1 280:3 284:1 287:1 292:3 296:1 307:1 308:1 311:1 319:1 333:1 335:1 340:1 344:1 345:1 346:1 348:1 351:2 353:4 356:2 360:1 361:1 378:1 384:1 398:1 401:2 411:2 413:1 433:1 434:3 440:1 446:2 447:2 455:1 456:1 460:1 465:1 467:1 471:1 475:5 482:1 484:1 486:2 500:1 508:1 512:1 513:2 531:1 538:1 543:1 545:1 552:1 556:1 563:1 565:1 576:1 579:6 580:1 586:1 594:1 628:1 643:1 685:2 693:12 706:1 724:2 729:1 733:1 754:2 771:1 778:1 784:1 810:1 840:1 842:1 848:1 871:1 872:4 877:1 921:2 933:6 935:1 936:1 940:2 952:2 973:5 999:8 1004:1 1051:2 1076:1 1078:1 1092:4 1104:2 1110:1 1112:2 1113:2 1116:1 1122:1 1132:1 1133:1 1145:1 1161:1 1164:1 1186:1 1188:1 1205:1 1224:1 1234:1 1236:1 1244:1 1274:1 1277:1 1299:6 1311:1 1314:1 1330:1 1366:2 1379:1 1403:3 1404:11 1409:1 1426:1 1437:3 1444:1 1453:2 1468:1 1475:1 1481:1 1482:1 1532:1 1547:2 1556:1 1576:4 1580:1 1583:2 1591:10 1596:1 1602:7 1605:1 1626:1 1630:1 1638:1 1639:1 1647:4 1650:1 1660:3 1673:2 1743:2 1744:1 1758:1 1782:1 1789:1 1824:1 1829:7 1839:9 1840:1 1841:1 1850:1 1864:1 1872:1 1878:1 1880:1 1893:1 1895:1 1902:4 1905:1 1920:1 1921:1 1934:1 1946:1 1979:1 1989:1 1994:1 2019:2 2026:2 2053:1 2065:2 2078:2 2126:1 2156:1 2173:1 2183:1 2193:2 2199:1 2200:1 2203:1 2210:3 2251:1 2262:1 2265:1 2273:1 2279:4 2280:1 2291:3 2294:2 2296:1 2305:1 2307:5 2311:1 2316:1 2319:2 2324:3 2339:1 2342:1 2367:2 2384:1 2397:1 2398:3 2407:1 2411:3 2419:1 2422:1 2447:1 2485:1 2497:1 2501:1 2518:1 2547:1 2560:1 2571:1 2581:1 2588:1 2603:1 2624:1 2634:1 2724:3 2731:1 2760:1 2769:2 2771:2 2772:2 2787:1 2792:1 2804:1 2813:1 2836:1 2837:4 2839:2 2846:1 2855:1 2888:2 2894:1 2908:8 2923:1 2928:1 2929:1 2977:1 2988:3 3033:1 3035:5 3059:1 3077:3 3095:1 3121:1 3138:1 3157:1 3169:1 3175:1 3176:2 3213:1 3235:1 3251:1 3288:2 3291:1 3299:1 3340:1 3346:1 3357:1 3367:1 3402:2 3443:2 3451:3 3456:1 3457:1 3483:1 3512:1 3553:1 3590:1 3618:2 3621:1 3647:1 3648:1 3671:1 3709:1 3711:1 3738:1 3745:1 3752:1 3753:1 3759:1 3760:1 3779:2 3784:1 3795:1 3826:1 3855:1 3903:9 3914:1 3933:1 3963:1 3970:1 3986:1 3988:1 3994:1 4007:1 4026:1 4053:1 4104:2 4124:3 4128:1 4136:3 4174:1 4176:1 4178:1 4184:1 4186:3 4227:1 4255:2 4271:1 4283:1 4294:1 4324:2 4331:1 4383:2 4413:1 4430:1 4462:1 4464:1 4640:1 4643:1 4685:1 4699:1 4705:1 4722:2 4726:1 4758:1 4771:1 4805:1 4822:2 4858:1 4885:1 4929:1 5035:1 5044:1 5085:1 5153:1 5167:1 5312:1 5373:3 5382:1 5431:1 5438:1 5475:1 5476:1 5508:1 5511:1 5513:1 5519:1 5542:1 5543:1 5560:1 5579:1 5589:1 5590:1 5604:1 5618:1 5627:1 5683:1 5688:1 5699:1 5700:1 5871:2 5884:1 5926:1 5958:1 5966:2 6018:1 6114:2 6174:1 6205:1 6217:1 6225:1 6583:1 6617:1 6656:1 6687:1 6762:1 6787:1 6810:1 6830:1 6861:1 6922:1 6944:1 7088:1 7291:1 7307:1 7353:1 7452:4 7653:1 7681:1 7717:2 7736:1 7740:2 7777:1 7778:1 7832:1 7847:1 7925:1 7948:6 8017:1 8052:2 8056:1 8057:3 8331:1 8489:1 8535:1 8567:2 8589:2 8658:1 8985:1 9023:6 9038:1 9046:1 9190:2 9295:1 9342:1 9352:1 9355:2 9444:1 9447:1 9597:1 9632:1 9654:1 9746:1 9798:1 10071:1 10080:1 10092:1 10125:1 10158:1 10168:1 10185:1 10190:1 10303:1 10348:2 10511:1 10882:1 10917:1 10938:1 11100:1 11117:1 11152:1 11161:1 11204:1 11528:1 11585:1 11722:1 11836:1 11970:1 12119:1 12302:6 12462:1 12698:9 12709:1 12974:2 12975:1 12976:1 12977:4 12978:1 12979:2 12980:1 12981:1 12982:1 12983:2 12984:1 12985:1 12986:1 12987:1 12988:1 12989:1 12990:1 12991:1 12992:1 12993:1 12994:1 12995:1 12996:1 12997:2 12998:1 12999:1 13000:1 13001:1 13002:1 13003:1 13004:1 13005:1 13006:1 13007:1 13008:1 13009:1 13010:1 13011:1 13012:1 13013:1 13014:1 13015:1 13016:1 13017:1 13018:1 13019:1 13020:1 13021:1 13022:1 13023:1 13024:1 13025:1 13026:1 13027:1 13028:1 13029:1 13030:1 13031:3 13032:1 13033:1 13034:1 13035:1 13036:1 13037:1 13038:1 13039:1 13040:1 13041:1 13042:1 13043:1 13044:1 13045:1 13046:1 13047:1 13048:1 13049:1 13050:1 13051:1 13052:1 13053:1 13054:1 13055:1 13056:1 13057:1 13058:16 13059:1 13060:2 13061:1 13062:1 13063:2 13064:1 13065:2 13066:1 13067:1 13068:1 13069:1 13070:1 13071:1 13072:1 13073:1 13074:1 13075:1 13076:1 13077:1 13078:2 13079:1 13080:1 13081:1 13082:1 13083:1 13084:1 13085:1 13086:1 13087:1 13088:1 13089:1 13090:1 13091:1 13092:4 13093:1 13094:1 13095:1 13096:1 13097:4 13098:1 13099:1 13100:1 13101:1 13102:2 13103:1 13104:2 13105:1 13106:1 13107:1 13108:1 13109:1 13110:3 #
-5.4176420599626400433686951307877e-05 7:2 13:4 28:6 43:1 50:1 59:2 62:1 83:1 90:2 114:1 122:2 125:1 132:2 163:5 173:1 175:2 186:3 187:1 190:1 202:4 204:1 214:1 217:1 218:1 242:1 243:3 247:2 250:12 261:1 262:2 264:1 266:4 267:1 268:1 272:1 276:2 277:2 278:4 280:3 282:1 287:16 291:2 294:1 308:14 310:1 314:1 330:1 334:3 335:1 342:2 345:1 350:1 353:1 355:2 356:2 361:1 368:3 373:1 378:1 380:1 400:1 401:9 416:1 446:3 457:2 458:1 461:3 471:1 483:1 484:1 491:1 500:2 532:1 535:1 545:1 547:1 557:1 562:2 563:2 575:1 576:1 579:2 582:1 586:1 594:2 630:1 648:1 655:1 685:2 692:1 744:1 793:1 802:2 826:1 829:1 888:1 919:1 942:1 957:1 958:1 989:1 996:1 999:1 1000:1 1053:1 1062:2 1064:1 1071:1 1076:1 1084:1 1085:3 1092:3 1097:1 1111:1 1113:1 1116:2 1122:1 1123:1 1140:4 1157:2 1166:1 1167:2 1171:3 1207:1 1209:1 1211:1 1221:1 1242:1 1264:1 1282:1 1286:1 1311:1 1353:1 1373:1 1377:1 1382:1 1403:5 1404:1 1408:1 1415:1 1445:1 1462:2 1470:1 1479:1 1482:6 1512:1 1519:1 1556:4 1575:1 1576:1 1590:1 1614:2 1635:1 1647:3 1666:1 1671:1 1677:1 1712:1 1726:1 1734:1 1740:3 1751:1 1762:2 1782:1 1789:1 1798:1 1806:1 1810:2 1811:1 1842:3 1847:1 1868:1 1893:1 1905:1 1908:1 1934:1 1972:1 1979:2 1983:2 1990:1 2040:2 2045:3 2047:2 2053:1 2060:1 2071:1 2076:1 2107:2 2109:1 2114:3 2122:10 2134:2 2140:1 2144:1 2156:2 2200:2 2207:2 2258:1 2273:1 2300:1 2317:2 2336:1 2339:1 2424:1 2438:1 2466:1 2491:1 2506:1 2508:1 2527:1 2588:3 2606:2 2683:2 2700:1 2717:1 2724:1 2743:3 2751:1 2774:1 2787:1 2788:1 2792:1 2794:2 2803:1 2818:3 2821:14 2822:1 2834:1 2837:9 2859:1 2877:1 2883:1 2923:1 2930:2 2939:1 2952:1 2953:1 2955:1 2965:1 2972:2 2988:1 3009:1 3010:1 3029:1 3033:1 3035:3 3043:1 3072:1 3077:1 3126:1 3150:1 3157:1 3169:1 3198:1 3209:1 3217:3 3236:1 3247:1 3265:2 3266:2 3277:1 3281:1 3299:1 3390:1 3404:1 3420:41 3425:3 3427:1 3434:1 3479:3 3481:1 3489:1 3498:2 3499:3 3515:1 3530:1 3548:1 3582:4 3589:1 3610:7 3621:1 3663:1 3683:1 3729:1 3731:9 3750:1 3752:2 3759:1 3780:1 3908:1 3927:1 3943:2 3960:1 3970:4 3990:2 4006:6 4029:1 4055:1 4112:1 4116:3 4128:1 4171:1 4174:1 4189:1 4190:1 4199:3 4207:1 4216:1 4227:1 4238:1 4240:1 4247:1 4385:1 4395:1 4468:1 4486:1 4492:1 4519:1 4521:1 4537:1 4574:1 4580:1 4595:1 4603:1 4609:1 4627:1 4630:1 4640:1 4657:1 4679:1 4705:1 4706:7 4726:1 4762:1 4831:1 4898:1 4907:1 4913:1 5065:1 5196:1 5200:1 5210:1 5211:1 5213:2 5227:2 5276:2 5282:1 5285:1 5300:1 5382:1 5416:1 5637:1 5648:1 5739:1 5750:1 5766:1 5800:1 5819:1 5837:1 5843:1 5861:2 5917:1 5921:1 6018:1 6047:1 6174:2 6212:1 6285:1 6441:1 6463:1 6579:1 6609:1 6675:1 6695:1 6736:2 6758:1 6926:4 6948:4 7000:1 7065:1 7077:1 7196:1 7257:1 7272:1 7462:1 7515:1 7620:1 7678:1 7713:1 7719:1 7740:1 7853:2 7984:1 8072:1 8078:1 8107:1 8154:1 8156:1 8302:1 8357:1 8360:2 8388:1 8395:1 8412:1 8476:1 8509:1 8603:1 8694:1 8743:1 8748:1 8979:1 8991:1 9034:1 9226:1 9250:1 9265:1 9291:1 9370:1 9406:1 9472:2 9499:1 9709:1 9771:1 9820:1 9828:1 9944:1 10061:1 10215:1 10362:1 10414:2 10428:1 10450:1 10519:1 10735:1 11078:1 11753:1 11908:1 12018:1 12049:1 12130:1 12248:1 12511:1 12667:1 12718:1 12761:1 12807:1 12812:1 12837:1 13011:1 13120:1 13143:1 13152:1 13433:1 13815:1 13898:3 13932:1 13959:2 13991:1 14046:1 14278:1 14299:1 14426:1 14449:1 14468:1 14629:1 15016:1 15276:1 15295:1 15550:1 15592:1 15838:1 15854:1 16641:1 16973:1 17441:1 17743:1 17782:1 18202:1 18343:1 18376:1 18447:1 18870:1 18872:1 19168:1 19203:1 19455:1 19725:1 19902:1 20395:1 20462:1 20488:1 20557:1 20806:1 20810:1 20935:1 21024:1 21082:1 21178:1 21205:1 21279:1 21401:1 21404:1 21700:1 21798:1 21804:1 22123:1 22124:1 22125:1 22126:1 22127:1 22128:1 22129:1 22130:1 22131:1 22132:1 22133:2 22134:1 22135:1 22136:1 22137:1 22138:1 22139:1 22140:1 22141:1 22142:1 22143:1 22144:1 22145:1 22146:1 22147:1 22148:1 22149:1 22150:1 22151:1 22152:1 22153:1 22154:1 22155:1 22156:1 22157:1 22158:1 22159:1 22160:1 22161:1 22162:1 22163:1 22164:1 22165:1 22166:1 22167:1 22168:1 22169:1 22170:1 22171:1 22172:1 22173:1 22174:1 22175:1 22176:1 22177:1 22178:1 22179:1 22180:1 22181:1 22182:1 22183:1 22184:1 22185:1 22186:1 22187:1 22188:1 22189:1 22190:1 22191:1 22192:1 22193:1 22194:1 22195:1 22196:1 22197:1 22198:1 22199:1 22200:1 22201:1 22202:1 22203:1 22204:1 22205:1 22206:1 22207:2 22208:1 22209:1 22210:1 22211:1 22212:1 22213:1 #
0.0013001129432948588596219430257861 2:5 27:2 34:2 58:1 66:3 68:1 117:2 121:3 138:1 175:2 188:1 202:1 242:1 243:1 248:1 250:2 261:1 272:1 278:2 280:2 287:5 328:1 334:2 338:1 353:1 356:2 357:1 388:1 408:1 446:2 448:1 456:1 467:1 487:1 489:5 516:2 522:1 523:1 595:1 599:1 603:6 619:1 636:1 885:1 888:1 898:1 945:1 1084:1 1104:1 1113:1 1122:2 1207:1 1242:1 1268:1 1287:3 1304:2 1305:1 1376:1 1448:1 1479:1 1522:1 1543:1 1569:2 1570:1 1580:3 1673:1 1893:1 1906:1 1934:1 1955:1 2045:1 2064:1 2071:1 2076:2 2079:1 2188:1 2258:1 2263:1 2370:2 2457:1 2505:1 2506:1 2634:1 2663:1 2722:1 2772:1 2774:1 2787:2 2837:2 2919:1 2984:2 2988:1 3035:1 3207:1 3287:1 3299:1 3326:1 3368:1 3432:1 3514:1 3533:1 3542:1 3553:1 3653:1 3657:2 3744:2 3774:1 3816:1 3945:2 4216:1 4451:1 4804:1 4807:1 4916:1 4932:1 4982:2 4989:1 5017:1 5348:1 5356:1 5360:1 5361:1 5403:1 5480:1 5518:1 5611:1 5634:1 5682:1 5785:1 5789:1 5792:1 6120:1 6404:1 6579:1 6584:1 6736:1 7593:2 7858:2 8151:1 8252:1 8578:1 8653:2 8862:1 9037:1 10112:1 10152:1 10300:1 10348:2 10359:1 10360:1 10370:1 11771:1 11789:1 11790:1 11791:1 11792:1 11793:1 11794:1 11795:1 11796:1 11797:1 11798:1 11799:1 11800:2 11801:1 11802:1 11803:1 11804:1 11805:1 11806:1 #
-0.00020011700276412788378904705766104 13:3 19:1 27:1 28:1 62:2 68:1 73:2 78:1 86:5 96:2 114:1 120:1 122:1 138:1 155:1 163:1 174:1 175:1 185:2 197:1 217:1 221:1 247:1 250:11 262:1 266:2 272:3 278:1 280:3 287:2 288:1 294:1 296:2 308:3 334:1 335:2 340:1 345:1 359:1 378:1 383:1 401:1 409:1 417:1 427:1 434:2 440:1 446:6 459:1 466:1 471:1 478:3 486:1 500:1 501:1 521:1 545:1 569:1 576:1 582:1 674:1 685:1 759:1 802:1 831:1 842:2 888:1 890:1 919:1 925:1 926:1 927:1 928:1 958:1 1018:1 1051:1 1068:5 1084:1 1085:1 1092:1 1112:1 1140:2 1186:1 1229:2 1232:1 1243:1 1251:1 1283:1 1318:1 1331:1 1370:1 1401:1 1447:1 1452:1 1468:1 1482:1 1532:3 1558:1 1574:1 1580:1 1583:1 1602:1 1604:1 1630:1 1647:1 1687:1 1749:1 1785:11 1884:1 1893:1 1915:1 1934:1 1953:1 1956:2 1959:1 1990:1 2019:2 2035:1 2040:2 2052:1 2071:1 2100:1 2109:1 2183:1 2186:2 2209:1 2248:1 2328:1 2370:1 2374:1 2480:1 2489:3 2502:1 2571:1 2603:1 2641:2 2651:1 2663:1 2666:1 2694:1 2700:1 2722:1 2724:3 2736:2 2738:1 2747:1 2774:1 2791:1 2803:1 2821:1 2822:1 2837:5 2916:1 2922:1 2934:1 2950:1 2984:1 2994:1 3002:1 3035:2 3045:2 3069:1 3072:1 3096:1 3106:1 3112:2 3117:1 3151:1 3175:2 3207:1 3230:2 3278:1 3314:1 3377:1 3386:1 3404:1 3457:1 3702:1 3774:1 3867:1 3922:1 3959:1 3966:1 4093:1 4105:1 4237:5 4247:1 4251:1 4266:1 4284:1 4352:1 4370:1 4585:2 4596:1 4621:1 4664:1 4813:1 4868:6 4986:1 5041:1 5200:1 5511:1 5618:1 5682:2 5722:1 5784:1 5848:1 5997:1 6617:1 6722:1 6971:1 6982:1 7153:1 7257:1 7284:1 7315:1 7426:1 7438:1 7577:1 7756:1 7879:1 8043:1 8095:1 8197:1 8275:1 8292:1 8325:1 8329:1 8442:1 8653:1 8733:1 8992:2 9578:1 9699:3 9758:1 10254:1 10771:1 11632:1 11798:1 11908:1 12298:1 12840:1 12979:1 13079:1 13189:1 13247:1 13321:1 14472:1 14682:1 15717:1 16076:1 16616:1 17021:1 17163:1 17819:1 17840:1 18281:1 18410:1 18877:1 19577:1 19647:1 20134:1 20268:1 20778:1 20981:1 21199:1 22456:2 22940:1 22979:1 23728:1 24031:1 24214:1 24215:1 24216:1 24217:1 24218:1 24219:1 24220:1 24221:1 24222:1 24223:1 24224:1 24225:1 24226:1 24227:1 24228:1 24229:1 24230:1 24231:1 24232:1 24233:1 24234:1 24235:1 24236:1 24237:1 24238:1 24239:1 24240:1 24241:1 24242:1 24243:1 24244:1 24245:1 24246:1 24247:1 24248:1 24249:2 24250:1 24251:1 24252:1 24253:1 24254:1 24255:1 24256:1 24257:1 24258:1 24259:1 24260:1 24261:1 24262:1 24263:1 24264:1 24265:1 24266:1 24267:2 24268:1 24269:1 #
-0.00012950269504541801063313144481981 7:3 13:3 19:1 27:1 69:1 93:2 103:2 121:2 126:1 140:1 141:1 144:1 147:1 152:1 158:2 163:2 174:2 175:4 211:4 247:5 279:1 280:4 287:1 298:2 308:19 309:1 340:1 342:1 344:2 345:1 351:6 353:4 361:1 397:1 401:1 413:1 421:1 429:1 452:1 459:1 467:1 471:1 484:1 499:1 500:1 516:1 532:6 540:1 545:1 550:4 564:1 580:3 587:1 599:1 609:2 636:2 678:12 693:8 706:2 729:1 739:2 795:1 840:1 852:1 913:2 921:1 925:1 942:1 955:2 969:1 993:1 994:1 999:2 1003:4 1010:1 1084:2 1085:2 1133:1 1136:2 1148:1 1170:1 1192:1 1207:1 1242:2 1260:1 1262:1 1283:1 1299:5 1304:1 1309:1 1312:1 1314:1 1389:1 1417:2 1426:1 1441:1 1444:1 1482:5 1506:2 1512:1 1556:2 1580:1 1588:2 1605:1 1638:1 1645:1 1803:2 1811:1 1842:1 1909:2 1915:1 1934:1 1957:1 1999:1 2003:3 2012:1 2045:1 2053:1 2056:1 2094:4 2165:1 2186:1 2203:2 2207:1 2280:1 2286:1 2304:1 2309:1 2311:3 2478:1 2480:1 2502:1 2503:1 2537:1 2582:1 2588:4 2627:1 2658:1 2690:1 2700:4 2717:2 2742:1 2756:1 2757:1 2821:34 2823:1 2830:1 2854:1 2855:1 2883:1 2904:2 2923:1 2932:1 2970:1 3003:5 3035:1 3183:1 3208:1 3216:1 3245:1 3253:2 3278:1 3288:4 3366:1 3386:1 3420:1 3432:1 3451:1 3457:2 3498:1 3556:1 3651:1 3664:1 3665:1 3743:2 3767:1 3780:1 3791:1 3933:4 3970:1 4022:1 4050:1 4080:1 4096:1 4190:1 4233:2 4270:2 4297:1 4371:1 4373:1 4375:1 4394:1 4574:1 4627:1 4673:2 4713:1 4885:1 4940:1 5011:1 5041:1 5157:1 5165:1 5302:1 5350:1 5416:2 5500:1 5831:2 6066:1 6113:1 6120:1 6221:1 6285:6 6313:1 6463:1 6477:2 6527:1 6567:1 6624:1 6667:1 6775:1 6869:1 6921:2 6965:1 7073:1 7281:1 7297:1 7319:1 7327:1 8082:3 8118:1 8126:1 8240:1 8376:3 8412:1 8509:2 8628:1 8713:1 8717:1 8853:1 8901:1 9105:3 9261:1 9333:1 9605:1 9611:1 9705:1 9752:3 9969:2 10152:1 10892:1 10962:1 10966:1 11182:1 11193:1 11427:2 11541:6 11652:1 12035:1 12255:1 12275:1 12313:1 13173:1 13550:1 13589:1 13951:1 14648:2 15930:1 16312:1 16760:1 17380:1 17511:1 17542:1 18506:1 18634:1 18869:1 19290:1 20269:1 20859:1 20983:1 21129:1 21157:1 21387:1 22132:2 22151:1 22357:1 22633:2 23081:1 23169:1 23170:1 23171:1 23172:1 23173:1 23174:1 23175:1 23176:1 23177:1 23178:5 23179:1 23180:1 23181:1 23182:1 23183:1 23184:1 23185:1 23186:1 23187:1 23188:1 23189:1 23190:1 23191:1 23192:1 23193:1 23194:1 23195:1 23196:1 23197:1 23198:1 23199:1 23200:1 23201:2 23202:1 23203:1 23204:1 23205:1 23206:1 23207:1 23208:1 23209:1 23210:1 23211:1 23212:1 23213:1 23214:1 23215:1 23216:1 23217:1 23218:1 #
-0.0013001129432948588596219430257861 12:1 13:2 15:1 18:1 27:2 45:1 66:1 68:1 73:2 74:1 77:2 78:1 92:1 97:1 108:1 110:1 112:2 114:1 117:2 120:1 121:7 132:2 136:3 146:3 148:2 154:1 157:5 162:1 163:1 165:3 174:2 175:2 183:1 186:10 193:1 202:1 203:1 204:2 217:2 218:1 231:1 242:2 243:4 245:4 246:1 247:1 249:1 250:3 261:2 267:1 275:1 276:8 277:1 278:1 280:2 284:2 287:2 292:2 305:1 308:3 309:1 313:1 322:1 328:1 333:1 342:2 351:3 353:1 356:2 360:1 361:1 365:1 366:1 381:2 388:1 400:1 410:1 440:1 446:4 448:1 452:13 455:2 456:1 478:1 482:1 484:2 517:1 550:1 552:1 553:5 562:1 563:1 580:5 594:3 603:2 609:1 610:1 636:2 678:1 692:4 724:1 739:1 767:1 788:1 797:1 823:2 824:1 826:1 878:1 881:1 898:1 916:1 925:1 945:1 951:1 955:2 962:1 973:3 975:1 992:1 999:1 1003:2 1010:1 1017:1 1046:1 1051:1 1053:1 1069:1 1076:1 1085:1 1096:1 1111:1 1112:1 1123:2 1132:1 1136:4 1140:1 1151:1 1158:1 1164:1 1171:1 1194:1 1206:3 1218:2 1221:1 1222:1 1224:1 1228:1 1231:1 1261:1 1268:2 1273:1 1279:2 1286:1 1299:3 1330:1 1342:1 1349:2 1403:4 1406:1 1409:1 1422:1 1437:4 1438:1 1444:1 1445:1 1460:1 1461:1 1462:1 1469:1 1474:1 1478:1 1482:2 1550:3 1559:1 1575:1 1587:1 1591:3 1600:2 1602:2 1639:1 1647:3 1660:1 1662:1 1664:1 1668:1 1744:1 1764:1 1782:1 1791:1 1814:1 1829:2 1833:1 1842:2 1858:1 1863:1 1880:1 1895:1 1915:2 1931:2 1934:1 1940:1 1972:1 1983:4 1998:1 2065:3 2070:1 2107:1 2122:1 2145:1 2155:1 2161:1 2248:2 2273:1 2284:1 2286:1 2318:1 2334:1 2342:2 2348:1 2370:1 2398:2 2408:1 2424:1 2431:1 2436:1 2444:1 2455:1 2500:1 2502:2 2505:1 2506:3 2555:1 2588:2 2591:1 2606:1 2610:2 2611:1 2618:1 2625:1 2634:1 2635:1 2666:2 2668:1 2702:1 2711:1 2717:1 2723:2 2724:5 2744:1 2772:3 2784:1 2787:1 2795:1 2803:1 2813:1 2818:1 2821:15 2831:3 2836:1 2837:2 2839:13 2872:1 2889:1 2894:1 2896:1 2928:1 2930:3 2973:1 3009:1 3012:1 3021:1 3022:1 3061:1 3077:1 3087:6 3095:1 3096:2 3105:1 3113:1 3150:1 3154:1 3160:3 3168:3 3169:1 3213:1 3232:1 3247:1 3270:1 3277:1 3364:1 3365:1 3374:1 3375:1 3381:1 3396:1 3408:1 3443:1 3460:1 3512:1 3539:1 3548:1 3609:1 3654:1 3655:1 3690:1 3693:1 3725:1 3760:1 3813:1 3959:1 3963:1 3984:1 4043:1 4128:1 4137:1 4159:1 4178:1 4190:1 4197:1 4223:2 4230:2 4237:1 4339:1 4383:1 4406:1 4462:1 4471:2 4476:1 4521:2 4524:1 4595:1 4606:1 4627:2 4676:1 4731:3 4747:1 4798:1 4805:1 4862:1 4869:1 4874:1 4948:1 4970:1 5020:1 5121:1 5247:1 5304:1 5368:1 5381:1 5416:2 5500:1 5585:1 5653:2 5683:1 5716:1 5776:1 5819:1 5861:1 5926:1 5936:1 5992:1 6120:1 6277:2 6321:1 6463:1 6513:1 6535:1 6557:1 6577:1 6722:2 6810:1 6822:2 6837:1 7069:1 7216:1 7242:1 7327:1 7423:5 7559:1 7622:1 7684:1 7690:1 7732:1 7849:1 7919:1 7984:1 8001:1 8044:1 8206:1 8302:1 8329:1 8368:1 8441:1 8476:1 8478:1 8488:1 8643:1 8997:4 9074:1 9341:1 9431:2 9447:1 9454:1 9519:1 9565:1 9597:1 9605:1 9630:1 9736:1 9752:2 9814:1 9922:1 10041:1 10083:1 10130:1 10348:1 10414:1 10520:1 10892:1 10952:1 10987:1 11302:1 11468:1 11490:1 11515:1 11764:1 11922:1 12513:2 12655:1 12864:2 12983:1 13757:1 13940:1 14202:1 14824:1 14874:1 14995:1 15104:1 15169:1 15340:1 15523:1 15531:1 16211:1 16263:1 17499:1 17563:1 17905:1 18526:1 18660:1 19012:1 19561:1 19945:1 19957:1 20350:1 20555:1 20983:1 21051:1 21052:1 21053:1 21054:1 21055:1 21056:1 21057:1 21058:1 21059:1 21060:1 21061:1 21062:1 21063:1 21064:1 21065:1 21066:2 21067:1 21068:1 21069:2 21070:1 21071:1 21072:1 21073:1 21074:1 #
0.0012443217519594838849084084131391 2:3 13:1 19:2 27:5 28:3 37:1 46:4 55:2 71:1 77:3 83:1 91:2 92:1 96:1 99:1 100:1 117:1 121:20 128:1 133:4 138:1 165:3 166:1 174:1 175:1 185:1 189:4 193:1 200:1 202:4 213:1 230:1 240:2 243:2 245:1 247:1 250:1 266:1 272:2 276:1 286:1 287:1 292:1 299:1 308:2 316:1 334:1 335:2 342:1 345:1 348:1 351:2 353:1 359:1 361:1 368:2 381:1 411:1 419:1 429:1 440:1 455:1 471:1 487:1 496:1 500:1 526:1 550:1 561:1 562:1 576:1 580:18 588:7 593:2 594:1 595:1 603:2 612:1 628:1 630:1 636:2 679:1 701:2 706:1 725:1 744:1 804:2 809:6 810:2 817:2 824:1 826:1 845:1 849:1 856:1 867:3 885:1 905:1 918:4 926:1 928:1 946:1 992:1 1046:1 1051:1 1085:2 1140:1 1145:1 1185:1 1209:1 1287:1 1325:1 1345:2 1351:1 1394:1 1411:1 1433:11 1444:1 1448:1 1462:1 1478:1 1498:1 1543:1 1586:1 1590:1 1607:1 1609:1 1614:1 1622:3 1630:1 1642:1 1655:1 1673:4 1688:1 1751:1 1756:1 1782:1 1791:1 1868:1 1934:1 1940:1 2011:2 2026:1 2056:1 2092:1 2114:2 2119:1 2136:1 2138:1 2140:2 2148:1 2169:2 2177:1 2198:1 2199:1 2213:1 2226:2 2266:1 2286:1 2327:1 2339:1 2422:1 2632:2 2636:1 2661:1 2683:1 2742:3 2754:1 2803:1 2974:1 3035:1 3064:8 3066:2 3130:1 3168:1 3169:1 3213:1 3243:1 3251:2 3279:1 3386:2 3505:1 3631:2 3665:1 3685:1 3960:1 4057:1 4059:1 4199:1 4265:1 4327:1 4373:1 4407:1 4423:1 4438:2 4454:1 4502:1 4515:1 4595:1 4608:1 4615:2 4687:1 4797:1 4831:1 4885:1 4954:2 5113:3 5124:1 5139:1 5206:2 5325:1 5409:4 5455:1 5480:2 5654:1 5766:1 5795:1 5811:1 6021:1 6072:1 6217:2 6228:1 6487:1 6565:1 6597:2 6632:1 6850:1 6944:5 7249:1 7577:1 8024:1 8113:1 8126:1 8160:1 8162:1 8276:1 8331:1 8509:1 8594:1 8682:1 8785:2 8850:4 8862:1 9105:1 9142:1 9623:1 9655:2 9658:1 9739:1 9820:1 10363:1 10865:6 10975:1 11027:1 11126:1 11887:1 12208:1 12353:1 12354:1 12355:1 12356:1 12357:1 12358:1 12359:1 12360:1 12361:1 12362:1 12363:1 12364:1 12365:1 12366:1 12367:1 12368:1 12369:1 12370:1 12371:1 12372:1 12373:1 12374:1 12375:1 12376:1 12377:1 12378:1 12379:1 12380:1 12381:1 12382:1 12383:1 12384:1 12385:1 12386:1 12387:1 12388:3 12389:1 12390:1 12391:1 12392:1 12393:1 12394:1 12395:2 12396:2 12397:2 12398:1 12399:1 12400:1 12401:1 12402:1 12403:3 12404:1 12405:1 12406:1 12407:1 12408:1 12409:1 12410:1 12411:1 12412:1 12413:1 12414:1 12415:1 12416:1 12417:1 12418:1 12419:1 12420:1 12421:1 12422:1 12423:2 12424:1 12425:1 12426:1 12427:1 12428:1 12429:1 12430:1 12431:1 12432:1 12433:1 #
0.0010474322733694699065487565547983 2:1 27:2 42:1 59:1 62:2 64:1 68:1 73:1 74:10 93:1 99:1 117:5 119:2 121:13 140:4 157:1 160:1 168:1 174:3 175:3 183:1 187:1 191:1 193:1 195:4 231:1 232:1 242:1 245:1 248:6 261:1 267:1 276:2 280:1 287:2 290:1 299:1 308:1 332:1 335:2 337:2 340:1 342:1 351:3 356:1 366:2 374:2 381:1 388:4 397:1 413:1 414:1 433:1 446:1 448:2 456:1 467:3 484:1 487:3 489:3 499:1 523:1 536:1 580:7 597:2 628:1 636:1 660:1 673:1 692:1 693:1 695:1 706:1 724:1 725:1 745:1 809:3 817:3 847:1 860:1 895:1 905:1 918:2 920:1 926:1 929:1 931:1 938:3 946:3 951:2 962:1 991:1 992:1 996:1 1061:4 1068:1 1076:5 1085:2 1104:2 1113:1 1127:1 1140:2 1150:1 1160:3 1161:1 1168:1 1169:1 1201:1 1207:1 1240:1 1242:1 1250:1 1287:4 1288:2 1299:1 1304:1 1309:1 1323:1 1348:1 1396:1 1409:1 1415:1 1443:1 1506:1 1522:1 1525:1 1535:1 1550:2 1622:1 1650:1 1694:1 1708:1 1827:2 1842:2 1846:1 1889:1 1893:1 1905:1 1920:1 1930:1 1931:1 1934:1 1940:1 1955:1 2011:1 2045:1 2063:1 2070:1 2199:1 2213:1 2258:1 2286:2 2339:1 2342:1 2441:1 2444:1 2463:1 2477:1 2486:1 2523:1 2562:1 2567:1 2574:3 2591:1 2604:1 2716:1 2723:1 2728:2 2756:2 2769:1 2803:2 3064:7 3066:1 3227:1 3339:1 3364:1 3622:1 3630:1 3678:1 3738:1 3841:2 3952:1 3994:1 4050:1 4128:1 4154:1 4178:1 4465:1 4498:2 4503:1 4534:1 4586:1 4595:1 4633:2 4807:1 4820:3 4824:1 4906:1 4907:1 4927:1 4954:1 4997:3 5084:1 5153:1 5300:1 5406:1 5415:1 5447:1 5501:1 5617:1 5624:1 5630:1 5637:1 5677:1 5722:1 6129:1 6174:1 6221:1 6230:1 6360:1 6463:1 6512:1 6564:1 6626:1 6664:1 6676:1 6715:1 6937:1 7075:1 7273:1 7690:3 7803:1 7812:1 8119:2 8164:1 8417:1 9868:1 10147:2 10542:1 10566:1 10596:1 10851:1 10961:1 11394:1 11480:1 12121:1 12221:1 12394:1 12556:1 13013:1 13043:1 13111:1 13112:1 13113:1 13114:1 13115:1 13116:1 13117:1 13118:1 13119:1 13120:1 13121:1 13122:1 13123:1 13124:1 13125:1 13126:1 13127:1 13128:1 13129:1 13130:2 13131:1 13132:1 13133:1 13134:1 13135:1 13136:3 13137:1 13138:1 13139:1 13140:1 13141:1 13142:1 13143:1 13144:1 13145:1 13146:1 13147:1 13148:1 13149:1 13150:1 13151:1 13152:1 13153:1 13154:2 13155:1 13156:2 13157:1 13158:1 13159:1 13160:2 #
0.0013001129432948588596219430257861 7:1 45:1 117:1 121:2 196:1 250:2 291:1 550:1 580:1 586:1 921:1 1140:2 1327:1 1447:1 1580:1 1834:1 1934:1 2058:1 2094:1 2169:1 3033:1 3900:1 3950:1 4177:1 5350:1 5629:1 5722:1 6203:1 6466:1 8822:1 8862:1 9186:1 9568:1 9964:1 10079:1 11083:1 11227:2 11228:1 11229:1 11230:1 11231:1 11232:1 11233:1 11234:1 11235:1 #
0.0012819613978728486812508347014727 2:3 3:3 7:3 15:1 27:2 42:1 45:1 47:1 62:1 74:4 75:1 111:1 114:2 117:1 121:18 124:1 157:3 175:3 186:1 231:1 233:1 246:1 250:2 262:5 272:3 276:7 280:1 287:1 299:1 300:1 305:1 334:1 335:1 336:1 340:1 345:1 353:1 378:2 381:1 385:1 388:2 389:1 401:1 406:1 433:1 440:2 446:1 456:1 460:1 471:1 484:1 487:1 491:1 499:1 500:1 508:1 532:1 546:1 552:1 569:1 580:13 583:1 588:1 594:2 599:1 604:1 619:1 628:1 630:2 636:1 642:1 646:1 684:1 685:5 693:1 706:1 788:1 804:2 809:4 817:1 821:1 824:2 879:1 890:1 918:1 928:1 973:1 982:1 990:1 1010:2 1019:1 1042:1 1076:1 1085:1 1092:1 1099:2 1113:1 1122:1 1137:1 1140:3 1148:1 1196:1 1218:1 1239:1 1240:1 1268:1 1304:1 1342:1 1345:1 1349:1 1388:1 1389:1 1403:3 1404:1 1441:1 1460:1 1462:1 1478:1 1510:1 1519:1 1521:1 1525:2 1559:1 1569:4 1596:1 1607:1 1613:1 1622:2 1630:1 1647:1 1650:1 1660:1 1673:1 1709:1 1811:2 1834:1 1839:1 1863:1 1868:1 1915:1 1931:1 1934:1 1942:1 1949:1 1972:1 1998:1 2020:2 2040:1 2047:1 2055:2 2076:1 2145:1 2154:2 2186:1 2191:1 2221:1 2266:1 2299:1 2327:2 2342:2 2383:1 2404:1 2484:1 2502:1 2574:1 2575:1 2580:1 2632:2 2742:2 2774:1 2784:2 2787:1 2803:1 2822:1 2876:1 2893:1 2922:1 2939:1 3029:1 3064:5 3128:1 3169:1 3183:1 3243:1 3246:1 3247:1 3279:1 3288:2 3305:1 3357:1 3364:1 3393:1 3397:1 3451:1 3465:1 3505:1 3621:1 3703:1 3735:2 3744:2 3791:1 3811:1 3887:1 3933:1 3967:1 4005:1 4021:1 4057:1 4128:1 4166:1 4177:1 4254:1 4255:1 4395:1 4408:1 4462:1 4467:1 4486:1 4491:1 4503:1 4510:2 4519:1 4534:2 4585:1 4588:1 4617:1 4676:1 4885:1 4954:1 4961:1 4967:1 4988:1 4989:1 5035:1 5038:1 5078:1 5105:1 5206:1 5276:2 5335:1 5483:1 5560:1 5600:1 5635:5 5637:2 5655:1 5670:1 5738:4 5770:1 5790:1 5795:1 5811:2 5861:1 5866:1 5912:1 5925:1 6174:1 6203:1 6252:1 6325:1 6357:1 6386:1 6389:1 6487:1 6500:1 6603:1 6612:1 6670:1 6687:1 6693:1 6710:2 6892:1 6899:1 6937:1 7036:3 7212:1 7438:1 7462:1 7466:1 7658:1 7819:1 7998:1 8168:1 8222:1 8509:1 8718:2 8767:2 8824:1 8963:1 9093:1 9094:1 9124:1 9204:1 9497:1 9506:1 9526:1 9565:1 9648:2 9974:1 10254:1 10348:1 10363:1 10421:1 10510:1 10879:1 11145:1 11534:1 11580:1 11662:1 11707:1 11761:1 11880:1 12066:1 12123:1 12158:1 12161:1 12162:1 12163:1 12164:1 12165:1 12166:1 12167:1 12168:1 12169:1 12170:1 12171:1 12172:1 12173:1 12174:1 12175:1 12176:2 12177:1 12178:1 12179:1 12180:1 12181:1 12182:1 12183:1 12184:1 12185:1 12186:1 12187:1 12188:1 12189:1 12190:1 12191:1 12192:1 12193:1 12194:1 12195:1 12196:1 12197:1 12198:1 12199:1 12200:1 12201:1 12202:1 12203:1 12204:1 12205:2 12206:1 12207:1 12208:1 12209:1 12210:2 12211:1 12212:1 12213:1 12214:1 12215:1 12216:1 12217:1 12218:1 12219:1 12220:1 12221:1 12222:7 12223:1 12224:1 12225:9 12226:1 12227:1 12228:1 12229:1 12230:1 12231:1 #
0.0013001129432948588596219430257861 446:1 15796:1 15797:1 15798:1 15799:1 15800:1 #
-0.00030020574197514213708737340624566 7:1 28:2 44:1 61:1 62:1 77:1 85:1 117:3 121:3 136:1 163:2 175:1 197:1 202:2 204:1 217:1 231:1 239:1 243:2 261:1 264:1 266:1 272:1 276:3 277:1 280:1 292:2 300:1 325:1 332:3 340:1 341:1 345:1 346:1 388:3 396:1 400:2 418:1 442:1 445:1 446:1 451:1 452:1 454:1 456:2 461:2 470:2 471:1 475:2 556:1 568:1 597:1 612:1 628:1 630:1 648:1 823:1 824:1 829:1 857:1 867:2 873:1 881:1 892:1 920:1 921:6 933:2 963:1 982:4 1010:2 1046:1 1047:1 1123:1 1129:1 1134:1 1141:1 1239:1 1264:1 1269:1 1304:2 1346:1 1370:6 1387:5 1390:1 1403:1 1408:1 1438:1 1444:1 1453:2 1487:1 1496:4 1524:1 1534:3 1543:2 1556:2 1559:2 1580:1 1595:1 1600:1 1625:1 1663:1 1674:1 1704:1 1789:2 1797:2 1812:1 1829:1 1842:1 1844:3 1850:5 1866:4 1875:1 1878:3 1881:2 1890:3 1900:1 1903:1 1934:1 1955:1 2072:3 2101:1 2148:1 2182:1 2186:1 2188:1 2327:2 2398:1 2452:1 2489:1 2507:1 2542:1 2555:1 2560:1 2654:1 2666:2 2714:1 2717:1 2724:3 2747:1 2773:1 2774:1 2778:1 2803:1 2805:1 2812:1 2821:1 2837:5 2870:1 2894:1 2908:1 2919:1 2931:1 2973:2 2988:2 3003:2 3011:1 3021:1 3035:2 3048:1 3061:1 3096:1 3136:1 3175:1 3247:1 3304:1 3404:1 3437:1 3472:1 3484:1 3538:1 3589:1 3760:1 3970:1 4007:1 4053:1 4564:1 4574:1 4582:1 4738:1 4758:1 4959:1 5020:1 5129:1 5512:1 5615:1 5675:1 5693:1 5735:1 5789:1 6049:1 6205:1 6921:2 6992:2 7034:2 7329:1 7569:1 7577:1 7713:1 7719:1 7785:1 7848:1 7878:1 8087:1 8151:1 8181:1 8197:1 8213:1 8802:1 8848:1 9046:1 9047:1 9183:1 9323:1 9498:1 10205:1 10351:1 10909:1 11433:1 11686:4 12094:1 12166:1 12219:1 12812:2 12826:1 12978:1 13208:1 13823:1 14183:1 16029:1 16400:2 18516:1 19452:1 19473:1 19536:1 19547:3 19569:1 20341:1 20342:1 20343:1 20344:1 20345:1 20346:1 20347:1 20348:1 20349:1 20350:1 20351:1 20352:1 20353:1 20354:1 20355:1 20356:1 20357:1 20358:1 20359:1 20360:1 20361:1 20362:1 20363:1 20364:1 20365:1 20366:1 20367:1 20368:1 20369:1 20370:1 #
-0.0006968124818298413207171004835061 1:1 2:11 3:1 18:2 27:1 32:1 49:1 50:1 66:1 68:3 69:1 77:7 78:1 103:3 114:3 117:2 121:7 126:9 128:2 136:3 138:3 146:3 157:1 158:1 163:2 165:3 170:1 175:1 188:1 193:1 195:1 196:1 204:1 208:1 225:1 232:1 234:1 235:3 241:1 243:2 250:4 256:1 261:1 266:6 272:1 276:1 278:1 279:1 280:5 287:2 292:1 296:1 298:1 332:5 342:2 345:1 353:1 354:1 356:1 361:1 363:1 368:1 382:1 388:4 421:1 446:3 447:1 456:1 460:1 471:1 475:1 482:1 486:1 487:1 500:1 513:2 516:1 517:1 531:1 545:1 546:1 551:1 552:1 559:1 576:1 580:2 586:1 593:1 609:1 636:1 639:2 674:1 691:1 699:1 771:1 790:1 888:2 890:1 898:1 899:1 915:1 928:1 945:1 951:3 964:1 975:2 981:1 997:1 1046:1 1047:1 1049:1 1076:1 1085:4 1093:1 1105:1 1110:1 1111:1 1122:1 1128:1 1132:1 1138:2 1140:2 1151:3 1159:2 1171:1 1187:1 1207:3 1223:1 1224:1 1262:1 1273:1 1299:2 1304:1 1312:1 1327:1 1330:1 1413:1 1417:3 1433:2 1441:1 1444:1 1453:1 1455:3 1503:1 1528:1 1556:2 1580:1 1586:2 1587:1 1596:1 1624:1 1627:1 1630:1 1638:1 1658:1 1663:1 1680:1 1717:1 1745:1 1795:1 1808:1 1837:1 1841:1 1875:1 1880:2 1915:4 1940:2 1953:1 1957:1 1958:1 1981:1 1985:1 2040:1 2071:5 2076:1 2082:1 2097:2 2187:1 2199:6 2232:1 2304:1 2342:1 2370:1 2373:1 2398:1 2407:1 2422:1 2456:2 2458:1 2463:1 2478:3 2505:1 2508:1 2544:1 2568:1 2614:1 2641:1 2651:2 2663:1 2690:1 2724:3 2742:4 2756:1 2769:1 2770:1 2787:1 2814:1 2817:1 2837:9 2872:1 2883:2 2888:3 2916:1 2930:1 2947:1 2976:1 2988:1 3003:1 3022:2 3033:1 3035:3 3040:3 3169:1 3175:1 3277:5 3303:1 3341:1 3366:1 3403:1 3443:1 3490:1 3514:5 3515:1 3520:1 3543:1 3553:1 3571:1 3574:1 3576:1 3589:2 3599:1 3610:1 3614:1 3623:1 3626:2 3630:1 3651:1 3673:1 3679:1 3742:1 3743:1 3779:1 3782:1 3800:1 3900:1 3925:1 4031:1 4055:2 4116:1 4140:1 4236:1 4333:1 4341:1 4374:2 4394:1 4418:1 4462:1 4585:1 4639:1 4684:1 4688:1 4691:1 4773:1 4790:1 4829:2 4878:5 4897:1 4907:1 4911:1 4913:2 4916:1 4953:1 4989:1 4990:4 5004:1 5013:1 5038:1 5053:1 5081:1 5099:1 5132:1 5136:1 5350:3 5402:1 5466:1 5480:1 5511:1 5519:1 5543:1 5562:1 5618:1 5626:1 5653:1 5654:1 5682:1 5692:1 5767:1 5795:1 5805:1 6089:2 6217:1 6246:1 6304:2 6584:1 6648:1 6701:1 6885:1 6918:1 7011:1 7088:1 7315:1 7354:1 7419:1 7545:1 7602:1 7819:1 7970:1 8123:1 8152:1 8450:1 8587:1 8798:1 8907:1 9333:9 9356:1 9403:1 9898:1 9908:1 9950:2 10041:1 10045:1 10276:1 10355:1 10609:1 11037:1 11055:1 11116:2 11136:1 11145:1 11180:1 11414:2 11433:2 11672:1 11880:1 12058:1 12195:1 12204:1 12447:1 12455:1 12630:1 12810:1 12814:2 12944:1 13160:1 13228:1 13993:1 14021:1 14452:1 15055:1 15070:1 16091:1 16101:1 16354:1 16589:1 16613:2 16629:1 16710:1 17116:1 17406:1 17912:1 17913:1 17914:1 17915:1 17916:1 17917:1 17918:1 17919:1 17920:1 17921:1 17922:1 17923:1 17924:1 17925:1 17926:1 17927:1 17928:1 17929:1 17930:1 17931:1 17932:1 17933:1 17934:1 17935:1 17936:1 17937:1 17938:1 17939:1 17940:1 17941:1 17942:1 17943:1 17944:1 17945:1 17946:1 17947:1 17948:1 17949:1 17950:1 17951:1 17952:1 17953:1 17954:1 17955:1 17956:1 17957:1 17958:1 17959:1 17960:1 17961:1 17962:1 17963:1 17964:1 #
-0.0013001129432948588596219430257861 2:6 9:1 27:3 28:1 61:1 74:1 77:1 103:2 114:1 117:2 121:3 122:1 123:1 126:9 132:1 136:1 138:4 140:1 141:1 146:2 150:1 157:1 175:1 193:1 195:1 197:1 202:1 225:1 231:1 235:2 241:1 243:1 250:2 287:4 292:1 294:1 299:1 328:2 332:2 342:1 366:1 368:1 388:1 393:1 430:1 446:1 447:1 475:1 482:1 484:1 486:3 501:1 516:1 550:1 559:1 570:1 580:2 583:1 612:1 636:7 670:1 753:1 787:2 817:1 970:1 1049:1 1053:1 1076:1 1085:1 1104:1 1105:1 1151:2 1169:2 1170:2 1186:1 1187:1 1223:2 1224:3 1262:2 1299:1 1304:2 1305:1 1312:1 1345:2 1409:1 1412:1 1417:2 1433:1 1453:1 1475:1 1512:1 1520:1 1615:1 1630:1 1665:1 1691:1 1736:2 1745:2 1863:1 1889:1 1914:1 1925:2 1934:1 1956:1 1981:1 1983:1 2022:2 2026:1 2045:3 2071:2 2107:1 2136:1 2158:1 2300:1 2353:1 2411:1 2428:1 2444:2 2502:1 2503:1 2504:2 2548:1 2571:1 2591:1 2690:1 2724:1 2742:1 2770:1 2786:2 2803:1 2831:1 2837:5 2923:3 3033:2 3035:1 3040:1 3096:1 3169:2 3232:1 3309:1 3368:1 3402:1 3490:1 3494:1 3610:1 3614:1 3626:1 3627:2 3665:1 3678:1 4144:1 4374:1 4383:1 4675:1 4726:1 4744:1 4762:1 4773:1 4788:2 4878:2 4916:1 4988:1 5038:1 5078:1 5101:1 5240:1 5335:1 5382:1 5384:1 5518:1 5629:1 5634:2 5678:1 5798:1 5942:1 6112:1 6217:1 6476:1 6570:1 6584:1 6695:1 7014:1 7474:1 7515:1 8003:1 8126:1 8152:1 8509:1 8677:2 8697:1 8811:1 9052:4 9333:1 9908:1 10207:1 10910:2 10998:1 11056:2 11116:1 11653:1 12284:1 13592:1 14781:1 16200:2 16682:1 17099:1 17266:1 17451:1 17452:1 17453:1 17454:1 17455:1 17456:1 17457:1 17458:1 17459:3 17460:1 17461:1 17462:1 17463:1 17464:1 17465:1 17466:1 17467:1 #
0.0013001129432948588596219430257861 2:3 3:1 27:1 28:1 31:1 46:1 62:1 74:1 77:4 117:3 121:1 130:1 136:1 146:1 189:1 193:1 202:4 204:1 225:1 230:2 235:1 242:1 255:1 260:1 261:1 268:1 299:1 337:1 342:1 345:1 358:1 369:1 380:1 400:1 401:1 411:1 418:1 456:2 471:1 480:1 498:1 500:1 558:1 563:1 568:1 593:1 810:1 849:1 910:1 952:1 1062:1 1137:1 1243:1 1336:1 1345:1 1359:1 1462:1 1475:1 1482:1 1498:1 1556:1 1574:2 1592:1 1593:1 1682:1 1740:2 1762:1 1791:1 1804:1 1934:1 1936:1 1950:1 2007:1 2021:1 2040:1 2091:1 2210:1 2213:1 2224:1 2302:1 2303:1 2317:1 2489:1 2591:1 2717:1 2724:2 2785:2 2786:1 2800:1 2804:1 2816:1 2821:6 2822:1 2837:1 2922:1 2931:1 3009:1 3169:1 3207:1 3217:1 3223:2 3244:1 3278:1 3536:1 3609:1 3693:1 3779:1 3815:1 3887:2 3898:1 4016:1 4050:1 4150:1 4178:1 4182:2 4422:1 4684:2 4764:1 5175:1 5292:1 5327:1 5585:1 5848:1 6112:1 6409:1 6467:1 6477:1 6762:1 6822:1 7923:1 7951:1 8421:1 8602:1 8751:1 9082:1 9180:1 10063:1 10319:1 10414:1 12341:1 12389:1 12614:1 12615:2 12616:6 12617:1 12618:1 12619:1 12620:1 12621:1 12622:1 12623:1 12624:1 12625:1 12626:1 12627:1 12628:1 12629:1 12630:1 12631:1 12632:1 12633:1 12634:1 12635:1 12636:1 12637:3 12638:2 12639:1 12640:1 12641:2 12642:1 12643:1 12644:1 12645:1 12646:1 12647:1 12648:1 #
0.0013001129432948588596219430257861 27:3 28:2 45:1 64:1 66:1 71:1 73:1 74:3 77:1 92:1 117:2 121:3 126:1 140:2 160:1 163:3 174:2 175:3 186:2 193:3 194:1 202:1 204:2 217:1 219:1 231:2 243:2 245:1 247:1 266:2 276:1 277:1 278:4 287:1 308:2 335:1 342:3 344:3 356:2 380:2 401:1 408:1 410:1 414:1 440:1 446:3 448:1 457:1 520:1 553:13 563:1 569:1 580:2 596:1 603:1 610:2 674:1 692:1 783:1 795:1 825:2 826:1 840:1 888:1 916:2 921:2 925:1 928:1 942:1 968:2 973:4 974:1 985:2 996:1 999:1 1003:2 1010:2 1046:1 1075:1 1076:2 1080:1 1092:1 1118:1 1161:2 1171:1 1258:1 1262:1 1290:1 1299:3 1303:1 1304:1 1345:1 1349:1 1394:1 1403:1 1437:1 1469:2 1475:1 1482:1 1550:1 1630:1 1639:1 1647:1 1650:1 1668:1 1740:1 1746:3 1754:1 1762:1 1786:1 1791:1 1814:1 1829:1 1833:1 1870:1 1880:1 1908:1 1934:1 1983:1 1994:4 2019:1 2065:2 2087:1 2094:1 2123:1 2159:1 2161:1 2195:1 2251:1 2272:1 2273:1 2299:1 2328:1 2348:1 2367:2 2368:1 2369:1 2502:2 2503:1 2551:1 2564:1 2634:1 2711:3 2717:1 2722:1 2723:1 2724:5 2736:1 2774:1 2784:2 2807:1 2821:17 2837:4 2839:4 2894:1 2911:1 2971:1 2987:1 3004:1 3061:3 3093:1 3100:1 3127:1 3164:1 3201:1 3204:1 3405:2 3654:1 3735:1 3744:1 3756:1 3759:4 3760:1 3780:1 3848:1 3868:1 3901:1 3933:1 3979:1 4005:1 4006:1 4029:2 4100:1 4129:1 4158:2 4190:2 4255:1 4352:1 4385:1 4414:2 4465:1 4587:1 4656:1 4712:1 4734:1 4762:1 4765:1 4876:1 5404:1 5462:1 5488:1 5637:1 5808:1 5986:1 6285:1 6729:1 6812:1 6822:2 6826:1 7135:1 7328:1 7357:1 7366:1 7574:1 7626:1 7700:1 7771:1 8306:1 8599:1 8992:1 9046:1 9074:1 9156:1 9446:1 9491:1 9501:1 9630:1 9655:1 9667:1 9687:5 9701:2 9752:1 10301:1 10474:1 10600:1 10634:1 11065:1 11087:1 11183:1 11221:1 11707:1 12370:1 12864:5 13130:1 13573:1 13667:1 13811:1 13843:1 15254:1 15476:1 16326:1 16469:1 16628:2 16629:1 16630:1 16631:1 16632:1 16633:1 16634:1 16635:1 16636:1 16637:1 16638:1 16639:1 16640:2 16641:1 16642:1 16643:1 16644:2 16645:1 16646:1 16647:1 16648:1 16649:3 16650:1 16651:1 16652:1 16653:1 16654:1 16655:1 16656:1 16657:1 16658:1 16659:1 16660:1 16661:1 16662:1 16663:1 16664:1 16665:1 16666:1 16667:1 16668:1 16669:1 16670:2 16671:1 16672:1 16673:1 16674:1 16675:1 16676:1 #
0.0013001129432948588596219430257861 2:1 28:1 52:1 69:1 113:1 114:1 175:1 187:2 202:2 208:3 223:1 227:1 238:1 247:1 252:1 282:1 305:1 308:1 326:3 342:1 345:1 351:1 415:1 418:2 425:1 427:1 430:1 471:1 492:1 500:1 520:2 545:1 623:1 650:1 661:1 681:1 848:2 934:1 946:1 958:1 973:2 985:1 1013:1 1032:1 1038:1 1051:1 1122:1 1131:1 1224:2 1231:1 1234:1 1417:1 1455:1 1469:1 1547:1 1552:1 1586:1 1591:3 1729:1 1746:1 1795:1 1829:1 1835:1 2019:1 2122:2 2136:1 2161:1 2205:1 2207:1 2232:1 2240:1 2284:1 2296:1 2342:1 2453:1 2591:1 2619:1 2660:1 2697:2 2804:1 2818:2 2837:1 2855:2 3058:1 3077:1 3150:1 3189:1 3213:1 3420:1 3479:1 3526:1 3544:1 3556:1 3744:1 3779:1 3784:1 3806:4 3832:1 4029:1 4112:1 4116:1 4476:1 4667:2 4790:1 4989:1 5227:1 5714:1 6082:1 6477:1 6664:1 6669:1 6682:2 6724:1 6729:1 6759:1 6823:1 9536:1 9655:1 9950:1 11047:1 12097:1 14059:1 14078:1 14081:1 14111:1 14113:1 14114:1 14115:1 14116:1 14117:1 14118:1 14120:1 14121:1 #
-0.0013001129432948588596219430257861 2:2 5:1 8:2 26:1 27:1 29:2 68:1 74:3 77:5 106:1 108:1 117:9 121:19 128:1 140:3 158:2 172:2 174:4 175:5 176:1 186:3 187:1 195:3 203:4 204:1 217:3 231:1 245:1 248:3 261:2 267:1 272:3 280:2 287:2 292:1 294:2 298:1 305:1 308:1 316:2 332:2 340:1 342:3 345:1 359:1 368:1 393:1 398:1 446:5 448:1 461:1 468:1 471:1 482:2 500:1 538:1 550:1 559:1 580:6 588:1 593:1 594:4 597:1 604:1 661:1 673:1 697:1 706:1 709:1 730:1 783:1 788:1 792:1 804:2 809:1 826:1 848:1 849:1 850:1 869:1 888:2 893:1 918:1 925:1 945:4 946:2 953:2 971:1 973:3 982:1 1000:1 1051:1 1057:1 1064:1 1076:1 1084:1 1092:1 1127:2 1129:1 1130:1 1137:1 1141:1 1189:1 1209:1 1245:1 1250:1 1288:1 1339:1 1348:1 1351:1 1369:1 1382:1 1443:1 1444:1 1485:1 1539:1 1559:1 1580:1 1598:1 1636:1 1639:1 1655:1 1666:1 1671:1 1673:2 1738:1 1811:1 1829:5 1865:1 1875:1 1893:1 1897:1 1931:7 1934:1 1957:1 1958:1 1968:1 1986:1 1992:1 2007:1 2019:1 2055:1 2063:1 2076:1 2078:3 2094:2 2159:1 2209:1 2213:1 2268:1 2273:1 2328:2 2354:1 2363:1 2383:1 2387:1 2452:1 2464:1 2486:1 2491:1 2517:1 2537:1 2542:3 2555:1 2588:1 2610:1 2665:1 2666:1 2700:1 2711:1 2723:2 2803:3 2811:1 2821:3 2822:1 2836:2 2837:10 2839:1 2872:1 2888:1 2894:2 2908:2 2941:1 2976:1 2988:1 2999:2 3096:5 3106:1 3107:1 3251:4 3252:1 3299:1 3300:1 3309:1 3322:2 3357:1 3370:1 3386:3 3404:2 3515:2 3525:1 3567:2 3568:1 3607:1 3615:1 3634:1 3658:1 3741:1 3791:1 4075:1 4105:1 4189:1 4199:1 4204:1 4226:1 4309:1 4409:1 4436:1 4534:2 4577:1 4608:1 4626:1 4673:1 4675:1 4676:1 4716:1 4741:1 4820:1 4876:1 4952:2 5030:1 5358:1 5416:1 5438:1 5573:1 5624:2 5662:1 5703:1 5718:1 5722:1 5919:1 6031:1 6054:1 6057:1 6120:1 6123:1 6164:1 6207:1 6220:2 6285:1 6499:1 6850:1 6903:1 7232:1 7634:1 7678:2 7684:1 7696:1 7805:1 7880:1 8120:1 8164:1 8187:1 8886:1 8922:1 9324:1 9331:1 9422:2 9423:1 9506:1 9802:1 9827:1 9914:1 10058:1 10242:1 10323:1 10566:1 10752:4 10970:1 11100:1 11391:1 11684:1 11884:1 12196:1 12823:1 12941:1 13225:1 13324:2 14318:1 14416:1 15568:1 16209:1 16366:1 17268:1 17504:1 17505:1 17506:1 17507:1 17508:1 17509:1 17510:2 17511:1 17512:1 17513:1 17514:1 17515:1 17516:1 17517:1 17518:1 17519:1 17520:1 17521:1 17522:1 17523:1 17524:1 17525:1 17526:1 17527:1 17528:1 17529:1 17530:1 17531:1 17532:1 17533:1 17534:1 17535:1 17536:2 17537:1 17538:1 17539:1 17540:1 17541:1 17542:1 17543:1 17544:1 17545:1 17546:1 17547:1 17548:1 17549:1 17550:1 #
-0.0013001129432948588596219430257861 4:1 7:1 9:1 13:4 27:2 29:1 49:1 74:1 77:2 91:1 92:1 111:1 113:1 121:2 132:1 136:1 141:1 152:1 157:1 163:1 175:3 186:8 193:2 198:1 202:1 217:2 218:1 228:1 229:1 243:2 247:1 250:1 256:1 264:1 267:1 272:2 276:3 280:2 305:1 308:10 323:1 342:2 343:1 344:2 348:1 351:1 356:2 377:1 381:1 401:4 452:2 459:1 460:1 482:1 496:1 545:1 550:1 562:4 580:2 593:1 594:1 681:1 724:1 725:4 730:1 745:1 749:1 752:1 783:2 784:1 878:1 888:3 919:2 921:2 925:1 936:4 962:1 970:1 973:3 992:1 999:2 1003:2 1046:3 1068:1 1072:2 1085:4 1092:2 1099:1 1100:1 1101:1 1105:1 1107:1 1114:1 1116:1 1124:1 1150:1 1161:3 1171:1 1205:2 1206:1 1242:1 1243:1 1261:3 1279:1 1284:1 1299:1 1337:1 1349:1 1403:1 1426:1 1437:9 1452:1 1455:2 1456:1 1481:1 1482:1 1498:1 1506:1 1522:1 1535:2 1543:2 1547:1 1550:1 1566:1 1580:1 1585:1 1589:1 1590:2 1591:3 1595:1 1596:1 1602:1 1638:2 1647:9 1668:1 1673:1 1712:1 1717:1 1736:1 1740:2 1762:1 1790:1 1791:2 1798:1 1829:3 1831:2 1833:1 1835:1 1842:2 1843:1 1870:1 1875:2 1880:1 1934:1 1940:2 1990:1 2019:1 2041:1 2060:1 2064:1 2111:2 2122:1 2154:2 2156:1 2173:1 2207:1 2232:1 2262:1 2273:1 2296:2 2327:1 2328:1 2342:2 2348:1 2350:1 2367:1 2370:1 2455:1 2502:4 2506:4 2541:1 2582:1 2591:1 2605:1 2608:4 2616:1 2634:3 2642:1 2708:1 2781:1 2787:1 2794:1 2818:3 2821:14 2822:1 2879:1 2888:2 2895:2 2908:2 2923:1 2955:1 2974:2 2977:1 2988:1 2999:1 3003:1 3009:1 3031:1 3035:1 3051:1 3064:13 3066:3 3077:1 3087:3 3088:1 3089:1 3091:2 3106:1 3107:1 3140:1 3154:2 3158:1 3160:1 3169:1 3201:3 3251:1 3253:1 3280:1 3314:3 3328:1 3367:2 3369:1 3396:2 3408:1 3425:1 3451:1 3460:1 3467:1 3499:1 3517:2 3530:1 3538:1 3540:1 3544:2 3551:1 3630:1 3663:1 3664:1 3690:1 3717:1 3739:1 3795:1 3898:1 3931:1 3960:3 3963:1 3990:1 4006:1 4042:2 4077:1 4097:2 4116:2 4129:1 4136:2 4144:1 4233:1 4262:1 4310:2 4373:1 4380:1 4409:1 4454:1 4470:1 4476:1 4503:2 4580:2 4673:2 4726:2 4738:1 4762:2 4917:2 5035:1 5085:1 5094:1 5124:1 5240:1 5246:2 5284:1 5348:2 5404:1 5433:1 5451:1 5466:1 5554:1 5637:1 5654:1 5682:1 5708:1 5730:1 5870:1 6103:1 6105:1 6173:1 6201:1 6410:1 6611:1 6626:1 6634:1 6687:1 6701:1 6715:1 6937:1 6951:1 7011:1 7180:1 7208:1 7216:1 7221:1 7334:1 7510:1 7515:1 7684:1 8144:1 8166:1 8233:1 8276:7 8283:1 8327:1 8357:1 8706:1 8783:1 9211:1 9474:1 9719:3 9752:1 9781:1 9786:2 9802:1 10058:1 10294:1 10341:1 10469:1 10626:1 10634:1 10710:1 10722:1 10723:1 10789:1 10828:1 11050:1 11060:1 11064:1 11188:1 11360:1 11444:1 11515:1 11538:1 11774:1 12176:1 12418:1 12453:1 13143:1 13172:2 13433:1 13489:1 13581:1 14598:1 14718:1 14783:1 14799:1 14943:1 15154:1 15541:1 16052:1 16485:1 17144:1 17563:1 19472:1 19651:1 19945:1 20217:1 20241:1 20458:1 20475:1 20671:1 20672:1 20673:1 20674:1 20675:1 20676:1 20677:1 20678:1 20679:1 20680:1 20681:1 20682:1 20683:1 20684:2 20685:1 20686:1 20687:1 20688:1 20689:1 20690:1 20691:1 20692:1 20693:1 20694:1 20695:1 20696:1 20697:1 20698:1 20699:1 20700:1 20701:1 20702:1 20703:1 20704:1 20705:1 20706:1 20707:1 20708:1 20709:1 20710:1 #
-0.0013001129432948588596219430257861 2:4 28:1 30:1 59:1 61:1 68:1 77:3 106:1 114:1 121:5 136:1 146:1 154:1 157:1 163:1 174:2 175:1 186:2 187:1 188:1 197:3 214:1 234:2 250:1 256:2 266:1 280:3 332:1 335:1 351:1 353:2 356:4 361:1 380:1 397:1 410:1 421:1 482:1 484:1 486:2 501:1 513:1 545:1 547:1 552:1 580:4 593:1 599:1 610:2 749:1 921:1 925:1 958:1 973:4 975:1 1000:2 1011:1 1084:1 1085:2 1092:3 1150:1 1151:1 1171:1 1221:1 1273:1 1329:1 1345:1 1444:2 1462:1 1479:1 1556:1 1576:1 1591:3 1595:5 1602:2 1638:1 1639:1 1648:1 1788:1 1791:2 1892:1 1905:1 1934:1 1946:1 1957:1 2013:1 2024:1 2058:2 2065:1 2070:1 2088:1 2100:1 2107:1 2136:1 2156:1 2248:1 2252:1 2273:3 2327:1 2422:2 2444:2 2454:1 2464:1 2500:1 2546:1 2555:1 2564:1 2619:1 2663:1 2666:1 2724:2 2774:1 2784:3 2813:1 2822:1 2837:3 2853:2 2872:3 2875:1 2882:1 2892:1 2909:1 2950:1 2961:1 2972:1 2999:1 3009:2 3018:1 3022:1 3032:1 3035:1 3041:1 3077:2 3079:1 3105:1 3106:1 3152:1 3154:2 3308:1 3314:1 3328:1 3371:1 3402:1 3443:1 3490:1 3543:1 3544:1 3609:2 3619:1 3626:1 3629:1 3634:1 3735:1 3752:2 3791:1 3804:1 3848:2 3900:1 3999:2 4103:1 4136:1 4190:1 4208:1 4236:1 4409:1 4462:1 4626:2 4631:1 4823:2 4872:1 4911:1 4916:1 4918:1 4984:1 4989:1 5038:1 5044:1 5051:2 5053:2 5094:1 5353:1 5391:1 5436:1 5519:2 5568:1 5629:2 5637:1 5846:2 5848:1 5919:1 6103:1 6412:1 6454:1 6545:1 6617:1 6762:1 6799:1 7135:2 7148:1 7928:2 7957:1 7989:1 8018:1 8037:1 8074:1 8197:1 8568:1 8635:1 8689:1 8718:1 8841:1 8860:1 8862:1 9005:1 9038:1 9121:1 9511:1 9878:1 9950:1 10269:1 10276:1 10351:1 10352:1 10526:1 11024:1 11653:1 11793:1 11883:1 12195:1 12340:1 12360:1 12679:1 12710:1 12851:1 12873:1 12895:1 13641:1 14089:1 15319:1 15869:4 17087:1 17396:1 18055:1 18056:3 18057:1 18058:1 18059:1 18060:1 18061:1 18062:1 18063:1 18064:1 18065:1 18066:1 18067:1 18068:1 18069:1 18070:1 18071:1 18072:1 18073:1 18074:1 18075:1 18076:1 18077:1 18078:1 18079:1 18080:1 18081:1 18082:1 18083:1 18084:1 18085:1 18086:1 18087:1 #
0.0013001129432948588596219430257861 2:1 12:3 13:1 18:2 28:2 35:1 45:3 49:3 55:3 68:1 71:1 73:1 77:1 103:4 109:2 112:1 114:4 117:6 121:2 126:1 128:1 136:1 138:2 148:1 158:2 165:1 175:5 202:4 217:5 225:1 232:2 235:2 243:1 247:1 255:2 261:6 266:2 272:4 278:1 279:3 280:3 287:14 300:3 308:2 314:1 325:4 329:1 332:1 342:2 343:1 345:3 346:2 351:1 360:5 361:2 368:1 380:1 404:1 408:1 440:1 446:2 456:1 460:1 471:3 484:1 500:3 501:2 513:2 539:2 540:1 559:1 561:2 563:4 579:2 580:1 586:2 593:1 630:2 636:2 646:1 664:1 678:1 682:1 754:1 783:1 821:2 867:1 869:2 874:2 884:1 894:1 914:1 936:1 951:13 952:5 969:1 975:1 992:1 1010:1 1046:1 1085:3 1092:1 1093:1 1107:1 1122:1 1124:2 1140:1 1145:1 1148:1 1161:1 1170:1 1171:1 1186:1 1187:2 1194:1 1206:1 1232:1 1251:1 1252:1 1268:3 1270:1 1304:1 1319:1 1342:1 1345:2 1396:1 1417:6 1433:12 1481:1 1516:1 1529:1 1535:1 1543:1 1556:1 1574:1 1580:1 1581:1 1596:1 1600:1 1638:1 1639:1 1650:1 1653:1 1658:1 1660:1 1668:1 1671:2 1698:1 1709:2 1712:1 1740:1 1744:1 1746:1 1749:1 1757:1 1839:2 1845:1 1915:5 1920:1 1924:1 1925:4 1936:1 1947:1 1989:1 2007:1 2022:1 2038:1 2049:1 2052:1 2054:3 2070:1 2071:1 2094:1 2122:1 2138:2 2165:1 2177:1 2186:4 2220:1 2286:2 2342:1 2386:1 2387:1 2400:2 2422:2 2428:1 2466:2 2517:1 2544:1 2555:1 2556:1 2557:1 2568:1 2574:3 2625:1 2635:2 2655:1 2664:1 2670:1 2724:2 2749:1 2772:1 2795:1 2807:1 2818:1 2837:3 2870:1 2930:1 2976:2 3021:1 3033:1 3135:1 3241:1 3375:1 3381:1 3402:2 3412:2 3437:1 3443:1 3474:1 3490:1 3520:1 3544:2 3548:2 3589:1 3603:1 3610:1 3617:3 3627:1 3631:1 3659:3 3690:1 3691:2 3752:1 3779:1 3922:1 3970:1 3986:2 4104:1 4105:1 4176:1 4233:1 4327:1 4397:1 4408:11 4502:1 4562:1 4574:1 4713:1 4913:1 4916:1 5035:1 5051:1 5156:1 5316:4 5332:1 5400:1 5475:1 5480:2 5485:1 5503:1 5553:1 5589:1 5770:1 5812:1 5846:1 5890:2 5963:2 6010:1 6031:1 6064:1 6205:1 6365:1 6430:1 6514:1 6778:1 6885:1 6959:1 7354:1 7536:2 7603:1 7684:1 7784:1 7874:2 7876:10 7878:1 7887:1 7893:1 8003:1 8047:1 8256:1 8269:1 8417:1 8496:1 9027:1 9043:1 9044:1 9045:1 9046:1 9047:1 9048:1 9049:2 9050:1 9051:1 9052:1 9053:6 9054:1 9055:1 9056:1 9057:1 9058:1 9059:1 9060:1 9061:1 9062:1 9063:1 9064:1 9065:1 9066:1 9067:1 9068:1 9069:1 9070:1 9071:1 9072:3 9073:2 9074:1 9075:1 9076:1 9077:1 9078:1 9079:1 9080:1 9081:2 9082:1 9083:1 9084:2 9085:1 9086:2 9087:1 9088:1 9089:1 9090:1 9091:1 9092:1 9093:1 9094:1 9095:1 9096:1 9097:1 9098:1 9099:1 9100:1 9101:2 9102:1 9103:1 9104:1 9105:4 9106:1 9107:1 9108:1 9109:1 9110:2 9111:1 9112:1 9113:1 9114:1 9115:1 9116:1 9117:1 9118:1 9119:1 9120:1 9121:1 9122:1 9123:1 9124:2 9125:1 9126:1 9127:1 9128:1 9129:1 #
0.0013001129432948588596219430257861 2:6 13:1 15:1 41:1 52:2 73:2 75:1 77:1 83:1 92:1 109:1 114:1 136:3 138:1 154:1 157:1 165:1 175:2 185:2 188:1 194:1 197:1 202:2 204:1 219:2 242:1 243:1 247:1 250:7 256:1 261:1 262:1 266:4 276:1 277:2 278:3 280:2 287:2 305:1 308:1 328:1 332:1 335:1 342:3 345:1 351:14 357:1 359:1 361:1 366:1 367:1 370:1 406:1 421:1 446:3 448:1 456:2 471:1 475:2 477:1 484:1 500:1 552:1 580:1 594:2 599:1 610:1 612:1 682:1 685:1 706:1 744:1 754:2 783:1 784:1 795:1 810:2 838:1 840:2 843:1 856:1 888:1 907:1 910:2 919:3 926:1 963:1 973:1 1000:1 1003:1 1006:1 1012:3 1046:1 1076:6 1085:2 1092:2 1104:1 1105:1 1140:1 1188:1 1205:1 1231:1 1239:1 1286:1 1289:1 1299:1 1304:2 1350:1 1351:1 1370:2 1395:1 1403:1 1409:1 1434:1 1440:1 1443:2 1452:1 1453:2 1475:1 1482:1 1499:1 1556:1 1575:1 1576:1 1591:1 1625:1 1655:1 1660:1 1662:1 1677:1 1751:1 1769:1 1788:1 1841:1 1863:3 1885:1 1896:1 1901:1 1909:1 1913:1 1922:1 1925:2 1934:1 1990:1 2020:1 2022:1 2052:1 2082:1 2100:1 2183:1 2240:1 2286:1 2296:1 2327:3 2348:1 2370:2 2378:1 2444:2 2457:1 2500:2 2501:1 2505:1 2543:1 2591:2 2603:1 2606:1 2751:1 2757:1 2774:3 2787:1 2801:1 2803:2 2813:1 2818:4 2821:1 2830:1 2850:1 2855:1 2860:1 2865:1 2923:1 2937:1 2950:1 2955:1 2976:1 2994:1 3035:1 3064:3 3066:2 3077:1 3124:1 3147:2 3150:1 3173:1 3196:1 3222:4 3236:1 3251:1 3265:1 3284:1 3402:1 3404:2 3412:1 3417:1 3443:1 3558:1 3587:1 3603:1 3630:1 3655:1 3665:1 3690:2 3745:1 3925:1 3933:1 3945:3 3963:1 4025:1 4029:1 4031:1 4066:1 4129:1 4173:1 4208:2 4219:1 4394:1 4410:1 4423:1 4481:1 4503:1 4510:1 4551:1 4562:2 4627:1 4637:1 4639:1 4641:1 4691:1 4829:1 4890:1 4911:1 5005:1 5013:1 5065:1 5156:1 5158:1 5341:1 5350:1 5573:1 5676:1 5716:1 5769:1 5808:1 5821:2 5822:1 5862:1 5983:1 5997:1 6055:1 6221:1 6241:1 6254:1 6430:1 6463:1 6597:6 6605:3 6670:1 6753:1 6780:1 6787:1 6867:1 6982:1 7133:1 7202:1 7224:1 7239:1 7257:1 7259:1 7335:1 7386:1 7400:1 7432:1 7469:1 7496:1 7537:1 7684:2 7744:2 7756:1 7785:1 7982:1 8074:1 8256:1 8276:1 8290:1 8320:1 8327:1 8442:1 8630:1 8707:1 8836:1 8952:1 9072:1 9234:1 9291:1 9472:1 9578:1 9650:1 9991:1 10081:1 10092:1 10101:1 10163:1 10256:1 10376:1 10421:1 10442:2 10489:1 10536:1 10557:1 10703:1 10918:1 10997:1 11147:1 11395:1 11430:1 11605:3 11608:2 11774:1 11816:1 11845:1 12064:1 12239:1 12240:1 12284:1 12344:1 12522:1 12774:1 12902:1 13241:1 13373:1 13441:1 14116:1 14145:1 14161:1 14246:1 14313:1 14733:1 14781:1 14797:1 15014:1 15188:1 15234:1 15283:1 15442:1 15783:2 15874:1 16032:1 16433:4 16575:1 16681:1 16770:1 16839:1 16896:1 16901:1 16902:1 16903:1 16904:1 16905:2 16906:1 16907:1 16908:1 16909:1 16910:1 16911:1 16912:1 16913:1 16914:1 16915:1 16916:1 16917:1 16918:1 16919:1 16920:1 16921:1 16922:1 16923:1 16924:1 16925:1 16926:1 16927:1 16928:1 16929:1 16930:1 16931:1 16932:1 16933:1 16934:1 16935:1 16936:1 16937:1 16938:1 16939:1 16940:1 16941:1 16942:1 16943:1 16944:1 16945:1 16946:1 16947:1 16948:2 16949:1 16950:1 16951:1 16952:1 16953:1 16954:1 16955:1 16956:1 16957:1 16958:1 16959:1 16960:1 16961:2 16962:1 16963:1 16964:1 16965:1 16966:2 16967:1 16968:1 16969:1 16970:1 16971:1 16972:1 16973:1 16974:3 16975:1 16976:1 16977:1 16978:1 16979:2 16980:1 16981:1 16982:1 16983:1 16984:1 16985:1 16986:1 16987:1 16988:1 16989:1 16990:1 16991:1 16992:1 16993:1 16994:1 16995:2 16996:1 16997:1 16998:1 16999:1 17000:1 17001:1 17002:1 17003:2 17004:1 17005:1 17006:1 17007:1 17008:1 17009:1 17010:1 17011:1 17012:1 17013:1 17014:1 17015:1 17016:1 17017:1 17018:1 17019:1 17020:1 17021:1 17022:2 17023:1 17024:1 17025:1 17026:1 17027:1 17028:1 17029:1 17030:1 17031:1 17032:1 #
